{"learner":{"attributes":{"scikit_learn":"{\"_estimator_type\": \"classifier\"}"},"feature_names":[],"feature_types":[],"gradient_booster":{"model":{"cats":{"enc":[],"feature_segments":[],"sorted_idx":[]},"gbtree_model_param":{"num_parallel_tree":"1","num_trees":"300"},"iteration_indptr":[0,1,2,3,4,5,6,7,8,9,10,11,12,13,14,15,16,17,18,19,20,21,22,23,24,25,26,27,28,29,30,31,32,33,34,35,36,37,38,39,40,41,42,43,44,45,46,47,48,49,50,51,52,53,54,55,56,57,58,59,60,61,62,63,64,65,66,67,68,69,70,71,72,73,74,75,76,77,78,79,80,81,82,83,84,85,86,87,88,89,90,91,92,93,94,95,96,97,98,99,100,101,102,103,104,105,106,107,108,109,110,111,112,113,114,115,116,117,118,119,120,121,122,123,124,125,126,127,128,129,130,131,132,133,134,135,136,137,138,139,140,141,142,143,144,145,146,147,148,149,150,151,152,153,154,155,156,157,158,159,160,161,162,163,164,165,166,167,168,169,170,171,172,173,174,175,176,177,178,179,180,181,182,183,184,185,186,187,188,189,190,191,192,193,194,195,196,197,198,199,200,201,202,203,204,205,206,207,208,209,210,211,212,213,214,215,216,217,218,219,220,221,222,223,224,225,226,227,228,229,230,231,232,233,234,235,236,237,238,239,240,241,242,243,244,245,246,247,248,249,250,251,252,253,254,255,256,257,258,259,260,261,262,263,264,265,266,267,268,269,270,271,272,273,274,275,276,277,278,279,280,281,282,283,284,285,286,287,288,289,290,291,292,293,294,295,296,297,298,299,300],"tree_info":[0,0,0,0,0,0,0,0,0,0,0,0,0,0,0,0,0,0,0,0,0,0,0,0,0,0,0,0,0,0,0,0,0,0,0,0,0,0,0,0,0,0,0,0,0,0,0,0,0,0,0,0,0,0,0,0,0,0,0,0,0,0,0,0,0,0,0,0,0,0,0,0,0,0,0,0,0,0,0,0,0,0,0,0,0,0,0,0,0,0,0,0,0,0,0,0,0,0,0,0,0,0,0,0,0,0,0,0,0,0,0,0,0,0,0,0,0,0,0,0,0,0,0,0,0,0,0,0,0,0,0,0,0,0,0,0,0,0,0,0,0,0,0,0,0,0,0,0,0,0,0,0,0,0,0,0,0,0,0,0,0,0,0,0,0,0,0,0,0,0,0,0,0,0,0,0,0,0,0,0,0,0,0,0,0,0,0,0,0,0,0,0,0,0,0,0,0,0,0,0,0,0,0,0,0,0,0,0,0,0,0,0,0,0,0,0,0,0,0,0,0,0,0,0,0,0,0,0,0,0,0,0,0,0,0,0,0,0,0,0,0,0,0,0,0,0,0,0,0,0,0,0,0,0,0,0,0,0,0,0,0,0,0,0,0,0,0,0,0,0,0,0,0,0,0,0,0,0,0,0,0,0,0,0,0,0,0,0,0,0,0,0,0,0,0,0,0,0,0,0],"trees":[{"base_weights":[-2.0444216E-3,-1.1128241E0,1.1830845E0,-1.2162886E0,1.14543214E-1,1.9318154E-1,1.6121906E0,-1.3813757E0,-7.682996E-1,2.5044322E-1,-1.6735968E-1,2.5141746E-1,-4.3372044E-4,8.808947E-1,1.9689881E0,-1.4546739E0,-1.0042019E0,2.5091523E-1,-9.3104076E-1,-6.584908E-1,6.396174E-1,-4.7279066E-1,8.3156925E-1,2.5151798E-1,6.5199065E-1,1.6253494E0,2.3508792E0,-1.5259491E-1,-1.20358005E-1,-1.1316415E-1,-2.3738831E-2,-1.1761158E-1,-5.2323945E-2,-8.228039E-2,3.6417153E-2,-1.4451355E-2,1.1004756E-1,-9.4276726E-2,3.327484E-3,-1.9231362E-2,1.3827033E-1,3.0114E-2,1.5654914E-1,2.5163683E-1,1.4671011E-1,2.5178847E-1,2.2835886E-1],"categories":[],"categories_nodes":[],"categories_segments":[],"categories_sizes":[],"default_left":[0,0,0,0,0,0,0,0,0,0,0,0,0,0,0,0,0,0,0,0,0,0,0,0,0,0,0,0,0,0,0,0,0,0,0,0,0,0,0,0,0,0,0,0,0,0,0],"id":0,"left_children":[1,3,5,7,9,11,13,15,17,-1,19,-1,21,23,25,27,29,-1,31,33,35,37,39,-1,41,43,45,-1,-1,-1,-1,-1,-1,-1,-1,-1,-1,-1,-1,-1,-1,-1,-1,-1,-1,-1,-1],"loss_changes":[5.011909E4,2.4958066E3,7.8239004E3,1.3394004E3,1.0303922E3,2.5035996E3,3.3510117E3,3.6465625E2,2.6067332E3,0E0,5.427715E2,0E0,2.02171E3,1.5752788E3,1.1293984E3,1.965664E2,2.1062134E2,0E0,4.6437378E2,1.4332977E2,1.8743806E2,7.804615E2,1.0515112E3,0E0,1.1849933E3,6.376533E2,4.0185547E1,0E0,0E0,0E0,0E0,0E0,0E0,0E0,0E0,0E0,0E0,0E0,0E0,0E0,0E0,0E0,0E0,0E0,0E0,0E0,0E0],"parents":[2147483647,0,0,1,1,2,2,3,3,4,4,5,5,6,6,7,7,8,8,10,10,12,12,13,13,14,14,15,15,16,16,18,18,19,19,20,20,21,21,22,22,24,24,25,25,26,26],"right_children":[2,4,6,8,10,12,14,16,18,-1,20,-1,22,24,26,28,30,-1,32,34,36,38,40,-1,42,44,46,-1,-1,-1,-1,-1,-1,-1,-1,-1,-1,-1,-1,-1,-1,-1,-1,-1,-1,-1,-1],"split_conditions":[-9.304262E-1,-4.835586E-1,-9.1865295E-1,-9.1865295E-1,2.1349108E0,1.0981215E0,-2.1130842E-1,3.500512E-1,1.1199328E0,2.5044322E-1,6.926154E-2,2.5141746E-1,1.8910274E-1,1.1199328E0,-4.835586E-1,6.926154E-2,6.926154E-2,2.5091523E-1,-2.1130842E-1,-3.501432E-1,-3.146336E-1,3.500512E-1,-3.146336E-1,2.5151798E-1,-4.835586E-1,1.1199328E0,2.1349108E0,-1.5259491E-1,-1.20358005E-1,-1.1316415E-1,-2.3738831E-2,-1.1761158E-1,-5.2323945E-2,-8.228039E-2,3.6417153E-2,-1.4451355E-2,1.1004756E-1,-9.4276726E-2,3.327484E-3,-1.9231362E-2,1.3827033E-1,3.0114E-2,1.5654914E-1,2.5163683E-1,1.4671011E-1,2.5178847E-1,2.2835886E-1],"split_indices":[1,4,3,3,4,1,2,5,3,0,2,0,2,3,4,2,2,0,2,8,5,5,5,0,4,3,4,0,0,0,0,0,0,0,0,0,0,0,0,0,0,0,0,0,0,0,0],"split_type":[0,0,0,0,0,0,0,0,0,0,0,0,0,0,0,0,0,0,0,0,0,0,0,0,0,0,0,0,0,0,0,0,0,0,0,0,0,0,0,0,0,0,0,0,0,0,0],"sum_hessian":[3.807035E4,1.965163E4,1.8418723E4,1.8123838E4,1.5277927E3,5.570232E3,1.284849E4,1.3241987E4,4.8818516E3,1.6036678E2,1.3674259E3,4.2796387E2,5.142268E3,4.214295E3,8.634194E3,1.1084935E4,2.1570527E3,2.3025797E2,4.6515938E3,8.501832E2,5.172427E2,3.2803381E3,1.86193E3,5.165246E2,3.6977705E3,4.547475E3,4.0867197E3,8.630126E3,2.4548083E3,1.8492443E3,3.0780847E2,2.904314E3,1.7472798E3,7.326607E2,1.17522514E2,1.9172206E2,3.255206E2,1.7003665E3,1.5799717E3,6.517593E2,1.2101708E3,2.6726199E3,1.0251505E3,6.8359326E2,3.8638818E3,1.1632574E3,2.9234624E3],"tree_param":{"num_deleted":"0","num_feature":"11","num_nodes":"47","size_leaf_vector":"1"}},{"base_weights":[5.847534E-4,-1.0285734E0,1.0481311E0,-1.3477346E0,-3.3646238E-1,-2.0515583E-1,1.574049E0,-1.417652E0,-1.1360863E0,-7.5718707E-1,3.9570627E-1,2.2511339E-1,-3.4719568E-1,8.8101393E-1,1.7878772E0,-1.4266726E0,-7.110832E-1,2.172369E-1,-1.2268056E0,2.6309618E-1,-8.264367E-1,2.224721E-1,1.7088895E-1,-6.843793E-1,2.8711125E-1,1.7786837E-1,1.2704238E0,1.2387071E0,1.9275479E0,-1.4745024E-1,-1.3049008E-1,2.3248516E-1,-9.5049135E-2,-1.4450417E-1,-1.1123272E-1,-1.0151899E-1,-2.2172986E-2,-4.705349E-2,5.7883956E-2,-1.0299357E-1,-3.7962917E-2,-4.1334353E-2,7.941569E-2,2.1616028E-1,-3.1224731E-3,9.180522E-2,1.7889129E-1,2.2929242E-1,1.0640687E-1,1.7327534E-1,2.0745002E-1],"categories":[],"categories_nodes":[],"categories_segments":[],"categories_sizes":[],"default_left":[0,0,0,0,0,0,0,0,0,0,0,0,0,0,0,0,0,0,0,0,0,0,0,0,0,0,0,0,0,0,0,0,0,0,0,0,0,0,0,0,0,0,0,0,0,0,0,0,0,0,0],"id":1,"left_children":[1,3,5,7,9,11,13,15,17,19,21,-1,23,25,27,29,31,-1,33,-1,35,-1,37,39,41,43,45,47,49,-1,-1,-1,-1,-1,-1,-1,-1,-1,-1,-1,-1,-1,-1,-1,-1,-1,-1,-1,-1,-1,-1],"loss_changes":[4.087783E4,4.224453E3,1.2385672E4,1.9208789E2,1.8601499E3,1.9389463E3,1.9599219E3,6.1671875E1,9.797456E2,9.018987E2,9.058825E2,0E0,1.1235691E3,8.5487573E2,7.734219E2,5.463086E1,9.377113E1,0E0,7.756836E1,0E0,4.287876E2,0E0,5.1414056E2,3.6078516E2,6.480383E2,4.6224176E2,3.6553247E2,3.756438E2,2.2717578E2,0E0,0E0,0E0,0E0,0E0,0E0,0E0,0E0,0E0,0E0,0E0,0E0,0E0,0E0,0E0,0E0,0E0,0E0,0E0,0E0,0E0,0E0],"parents":[2147483647,0,0,1,1,2,2,3,3,4,4,5,5,6,6,7,7,8,8,9,9,10,10,12,12,13,13,14,14,15,15,16,16,18,18,20,20,22,22,23,23,24,24,25,25,26,26,27,27,28,28],"right_children":[2,4,6,8,10,12,14,16,18,20,22,-1,24,26,28,30,32,-1,34,-1,36,-1,38,40,42,44,46,48,50,-1,-1,-1,-1,-1,-1,-1,-1,-1,-1,-1,-1,-1,-1,-1,-1,-1,-1,-1,-1,-1,-1],"split_conditions":[-9.304262E-1,-4.1836113E-1,-4.1836113E-1,-9.1865295E-1,-9.1865295E-1,1.0981215E0,-9.1865295E-1,-3.501432E-1,1.1199328E0,3.9053658E-1,1.1199328E0,2.2511339E-1,6.926154E-2,-2.1130842E-1,-3.6632362E-1,-2.1130842E-1,2.9518392E0,2.172369E-1,-1.0211117E0,2.6309618E-1,4.0205184E-1,2.224721E-1,-3.6632362E-1,-9.1865295E-1,-9.1865295E-1,1.0878258E0,4.0205184E-1,1.0981215E0,4.0205184E-1,-1.4745024E-1,-1.3049008E-1,2.3248516E-1,-9.5049135E-2,-1.4450417E-1,-1.1123272E-1,-1.0151899E-1,-2.2172986E-2,-4.705349E-2,5.7883956E-2,-1.0299357E-1,-3.7962917E-2,-4.1334353E-2,7.941569E-2,2.1616028E-1,-3.1224731E-3,9.180522E-2,1.7889129E-1,2.2929242E-1,1.0640687E-1,1.7327534E-1,2.0745002E-1],"split_indices":[1,0,0,3,3,1,3,8,3,0,3,0,2,2,2,2,8,0,0,0,0,0,2,3,3,1,0,1,0,0,0,0,0,0,0,0,0,0,0,0,0,0,0,0,0,0,0,0,0,0,0],"split_type":[0,0,0,0,0,0,0,0,0,0,0,0,0,0,0,0,0,0,0,0,0,0,0,0,0,0,0,0,0,0,0,0,0,0,0,0,0,0,0,0,0,0,0,0,0,0,0,0,0,0,0],"sum_hessian":[3.7914863E4,1.91253E4,1.8789564E4,1.3088638E4,6.0366626E3,5.554216E3,1.3235348E4,9.834228E3,3.2544106E3,3.8336853E3,2.2029775E3,3.028141E2,5.251402E3,3.1219546E3,1.0113394E4,9.709253E3,1.2497397E2,8.624325E1,3.1681675E3,7.6045494E1,3.75764E3,2.4016942E2,1.9628081E3,3.428701E3,1.8227008E3,1.1132499E3,2.0087048E3,2.0526123E3,8.060781E3,6.963146E3,2.7461072E3,8.498148E0,1.16475815E2,1.0860842E3,2.0820833E3,2.8632317E3,8.94408E2,7.629938E2,1.1998143E3,1.6056609E3,1.8230402E3,7.654541E2,1.0572468E3,1.0526151E2,1.00798834E3,1.1975831E3,8.111217E2,2.8998248E2,1.7626299E3,3.4716584E3,4.5891226E3],"tree_param":{"num_deleted":"0","num_feature":"11","num_nodes":"51","size_leaf_vector":"1"}},{"base_weights":[-3.8880343E-3,-9.5965147E-1,9.362352E-1,-1.0575469E0,1.4655407E-1,5.4258174E-1,1.623448E0,-1.2108886E0,-6.5371484E-1,2.105683E-1,-9.986001E-2,-1.2789197E-1,9.205808E-1,2.0332456E0,1.4664744E0,-1.3085437E0,-9.259536E-1,1.9402522E-1,-7.9263526E-1,-5.1776135E-1,4.6927404E-1,1.9900459E-1,-2.8410545E-1,2.0093527E-1,7.6322454E-1,2.2085907E0,2.005068E-1,9.0997946E-1,1.6065482E0,-1.3798444E-1,-1.2181492E-1,2.666602E-1,-9.431507E-2,-8.47583E-2,2.1885408E-2,-9.317155E-2,-1.1345788E-2,2.1566215E-1,3.2273203E-2,-7.8158215E-2,1.2612124E-2,2.1159004E-1,6.5627426E-2,1.9747321E-1,2.3102991E-1,6.924535E-2,1.5491538E-1,1.9910555E-1,1.525412E-1],"categories":[],"categories_nodes":[],"categories_segments":[],"categories_sizes":[],"default_left":[0,0,0,0,0,0,0,0,0,0,0,0,0,0,0,0,0,0,0,0,0,0,0,0,0,0,0,0,0,0,0,0,0,0,0,0,0,0,0,0,0,0,0,0,0,0,0,0,0],"id":2,"left_children":[1,3,5,7,9,11,13,15,17,-1,19,21,23,25,27,29,31,-1,33,35,37,-1,39,-1,41,43,-1,45,47,-1,-1,-1,-1,-1,-1,-1,-1,-1,-1,-1,-1,-1,-1,-1,-1,-1,-1,-1,-1],"loss_changes":[3.365058E4,2.0112266E3,5.1065293E3,1.0557031E3,7.295167E2,3.042694E3,4.3930273E2,3.4283203E2,1.6943425E3,0E0,3.1963657E2,1.4328273E3,1.3137563E3,4.966797E0,3.8633008E2,5.7652344E1,1.9770752E2,0E0,2.480415E2,1.2956625E2,1.4002086E2,0E0,8.2305237E2,0E0,9.6924365E2,1.4656982E0,0E0,1.3834052E2,1.2091504E2,0E0,0E0,0E0,0E0,0E0,0E0,0E0,0E0,0E0,0E0,0E0,0E0,0E0,0E0,0E0,0E0,0E0,0E0,0E0,0E0],"parents":[2147483647,0,0,1,1,2,2,3,3,4,4,5,5,6,6,7,7,8,8,10,10,11,11,12,12,13,13,14,14,15,15,16,16,18,18,19,19,20,20,22,22,24,24,25,25,27,27,28,28],"right_children":[2,4,6,8,10,12,14,16,18,-1,20,22,24,26,28,30,32,-1,34,36,38,-1,40,-1,42,44,-1,46,48,-1,-1,-1,-1,-1,-1,-1,-1,-1,-1,-1,-1,-1,-1,-1,-1,-1,-1,-1,-1],"split_conditions":[-9.304262E-1,-4.835586E-1,-4.835586E-1,-9.1865295E-1,2.1349108E0,-9.1865295E-1,2.1349108E0,4.5852684E-3,1.1199328E0,2.105683E-1,-9.1865295E-1,1.0981215E0,1.1199328E0,-9.1865295E-1,-9.1865295E-1,-8.4317917E-1,3.1794024E-1,1.9402522E-1,-3.501432E-1,4.5852684E-3,1.1199328E0,1.9900459E-1,4.5852684E-3,2.0093527E-1,1.0981215E0,1.0981215E0,2.005068E-1,-3.501432E-1,1.1199328E0,-1.3798444E-1,-1.2181492E-1,2.666602E-1,-9.431507E-2,-8.47583E-2,2.1885408E-2,-9.317155E-2,-1.1345788E-2,2.1566215E-1,3.2273203E-2,-7.8158215E-2,1.2612124E-2,2.1159004E-1,6.5627426E-2,1.9747321E-1,2.3102991E-1,6.924535E-2,1.5491538E-1,1.9910555E-1,1.525412E-1],"split_indices":[1,4,4,3,4,3,4,5,3,0,3,1,3,3,3,5,5,0,8,5,3,0,5,0,1,1,0,8,3,0,0,0,0,0,0,0,0,0,0,0,0,0,0,0,0,0,0,0,0],"split_type":[0,0,0,0,0,0,0,0,0,0,0,0,0,0,0,0,0,0,0,0,0,0,0,0,0,0,0,0,0,0,0,0,0,0,0,0,0,0,0,0,0,0,0,0,0,0,0,0,0],"sum_hessian":[3.7448473E4,1.856976E4,1.8878713E4,1.7060049E4,1.5097117E3,1.2004189E4,6.8745244E3,1.2363445E4,4.696603E3,1.678294E2,1.3418822E3,4.3280312E3,7.6761587E3,1.9006658E3,4.9738584E3,9.205033E3,3.158412E3,2.3808253E2,4.4585205E3,7.737942E2,5.68088E2,2.964899E2,4.0315413E3,9.678296E2,6.708329E3,2.5243129E2,1.6482345E3,1.0017061E3,3.9721523E3,5.1380303E3,4.0670032E3,1.431284E1,3.144099E3,4.2289507E3,2.2956964E2,3.816894E2,3.9210483E2,4.429858E1,5.237894E2,1.8216022E3,2.209939E3,4.9015875E2,6.2181704E3,8.26983E1,1.6973299E2,7.489159E2,2.5279018E2,6.880273E2,3.284125E3],"tree_param":{"num_deleted":"0","num_feature":"11","num_nodes":"49","size_leaf_vector":"1"}},{"base_weights":[-2.9796318E-3,-9.0032834E-1,8.207661E-1,-1.1374638E0,-4.5976487E-1,1.0800459E-2,1.2625344E0,-1.2555674E0,-8.9125055E-1,1.8641488E-1,-5.9497803E-1,-5.24094E-1,4.7867736E-1,6.41842E-1,1.4522047E0,-1.2699946E0,-4.6213433E-1,-1.2239584E0,-7.5391304E-1,-7.778286E-1,3.2563898E-1,2.3081987E-1,-6.005271E-1,1.3419454E-1,1.162627E0,1.8256955E-1,4.4584104E-1,1.1966345E0,1.6762668E0,-1.360812E-1,-1.194871E-1,2.1882573E-1,-7.568672E-2,-1.2530747E-1,-4.0295508E-2,2.424161E-1,-7.7931345E-2,-1.18575834E-1,-6.0460042E-2,6.4569525E-2,-1.8611318E-2,-7.246249E-2,5.6666106E-2,2.1756819E-1,7.331433E-5,2.1033981E-1,9.9717885E-2,5.7389215E-3,9.377614E-2,1.9546117E-1,1.0906514E-1,1.8752615E-1,1.6220206E-1],"categories":[],"categories_nodes":[],"categories_segments":[],"categories_sizes":[],"default_left":[0,0,0,0,0,0,0,0,0,0,0,0,0,0,0,0,0,0,0,0,0,0,0,0,0,0,0,0,0,0,0,0,0,0,0,0,0,0,0,0,0,0,0,0,0,0,0,0,0,0,0,0,0],"id":3,"left_children":[1,3,5,7,9,11,13,15,17,-1,19,21,23,25,27,29,31,33,35,37,39,-1,41,43,45,-1,47,49,51,-1,-1,-1,-1,-1,-1,-1,-1,-1,-1,-1,-1,-1,-1,-1,-1,-1,-1,-1,-1,-1,-1,-1,-1],"loss_changes":[2.7127732E4,1.8345459E3,6.846616E3,3.309043E2,1.932921E3,1.6905468E3,1.4566914E3,8.77168E1,1.6836841E2,0E0,9.7838403E2,6.8369086E2,8.487974E2,6.7203E2,5.4100586E2,5.0060547E1,1.10499E2,2.5333618E1,2.1379407E2,3.4187036E2,1.5794022E2,0E0,4.450531E2,6.532007E2,1.8574036E2,0E0,4.7559445E2,3.5401318E2,5.147461E1,0E0,0E0,0E0,0E0,0E0,0E0,0E0,0E0,0E0,0E0,0E0,0E0,0E0,0E0,0E0,0E0,0E0,0E0,0E0,0E0,0E0,0E0,0E0,0E0],"parents":[2147483647,0,0,1,1,2,2,3,3,4,4,5,5,6,6,7,7,8,8,10,10,11,11,12,12,13,13,14,14,15,15,16,16,17,17,18,18,19,19,20,20,22,22,23,23,24,24,26,26,27,27,28,28],"right_children":[2,4,6,8,10,12,14,16,18,-1,20,22,24,26,28,30,32,34,36,38,40,-1,42,44,46,-1,48,50,52,-1,-1,-1,-1,-1,-1,-1,-1,-1,-1,-1,-1,-1,-1,-1,-1,-1,-1,-1,-1,-1,-1,-1,-1],"split_conditions":[-4.1836113E-1,-9.1865295E-1,-9.1865295E-1,-2.1130842E-1,1.1199328E0,-2.1130842E-1,-3.6632362E-1,-3.501432E-1,-1.0211117E0,1.8641488E-1,4.128056E-1,3.9053658E-1,4.0205184E-1,1.1199328E0,4.0205184E-1,-1.0211117E0,2.9795382E0,-4.835586E-1,-5.153807E-1,-1.0211117E0,9.514205E-1,2.3081987E-1,-3.501432E-1,3.9053658E-1,1.2964538E0,1.8256955E-1,4.0205184E-1,3.9053658E-1,1.2964538E0,-1.360812E-1,-1.194871E-1,2.1882573E-1,-7.568672E-2,-1.2530747E-1,-4.0295508E-2,2.424161E-1,-7.7931345E-2,-1.18575834E-1,-6.0460042E-2,6.4569525E-2,-1.8611318E-2,-7.246249E-2,5.6666106E-2,2.1756819E-1,7.331433E-5,2.1033981E-1,9.9717885E-2,5.7389215E-3,9.377614E-2,1.9546117E-1,1.0906514E-1,1.8752615E-1,1.6220206E-1],"split_indices":[0,3,3,2,3,2,2,8,0,0,2,0,0,3,0,0,8,4,0,0,7,0,8,0,0,0,0,0,0,0,0,0,0,0,0,0,0,0,0,0,0,0,0,0,0,0,0,0,0,0,0,0,0],"split_type":[0,0,0,0,0,0,0,0,0,0,0,0,0,0,0,0,0,0,0,0,0,0,0,0,0,0,0,0,0,0,0,0,0,0,0,0,0,0,0,0,0,0,0,0,0,0,0,0,0,0,0,0,0],"sum_hessian":[3.669741E4,1.7563975E4,1.9133436E4,1.1417088E4,6.146887E3,6.753031E3,1.2380405E4,7.713145E3,3.7039424E3,3.3727866E2,5.8096084E3,3.150799E3,3.6022317E3,2.898735E3,9.48167E3,7.57481E3,1.3833522E2,1.0799037E3,2.6240388E3,4.847054E3,9.625543E2,8.202688E1,3.0687722E3,2.3964268E3,1.2058049E3,4.1056882E2,2.4881663E3,4.432362E3,5.0493086E3,3.4214653E3,4.1533447E3,1.3200943E1,1.2513428E2,1.0424092E3,3.7494526E1,2.0057276E1,2.6039814E3,1.4430397E3,3.4040146E3,5.920297E2,3.705246E2,2.7741936E3,2.9457858E2,1.46113E2,2.2503137E3,1.7859044E2,1.0272145E3,1.3909218E3,1.0972444E3,5.415841E2,3.8907776E3,1.0744108E3,3.9748977E3],"tree_param":{"num_deleted":"0","num_feature":"11","num_nodes":"53","size_leaf_vector":"1"}},{"base_weights":[-4.708879E-3,-8.629722E-1,7.9433113E-1,-9.52587E-1,8.6727075E-2,4.670256E-1,1.3684882E0,-1.0923692E0,-5.9978354E-1,1.8217467E-1,-1.306159E-1,1.7856504E-1,3.413803E-1,1.7459767E0,1.2262539E0,-1.168824E0,-7.1123E-1,1.6532998E-1,-7.1988076E-1,-4.6137467E-1,3.0217043E-1,-2.1113873E-1,6.567492E-1,1.9162564E-1,1.7181592E-1,7.8090245E-1,1.3424362E0,-1.268919E-1,-1.07016854E-1,2.6964793E-1,-7.310324E-2,-7.7177934E-2,1.7536197E-2,-8.61057E-2,-9.015502E-3,1.7847411E-1,1.7807003E-2,-6.780233E-2,1.6408555E-2,1.7151201E-1,5.424368E-2,6.0330834E-2,1.2982368E-1,1.3950531E-1,8.5007034E-2],"categories":[],"categories_nodes":[],"categories_segments":[],"categories_sizes":[],"default_left":[0,0,0,0,0,0,0,0,0,0,0,0,0,0,0,0,0,0,0,0,0,0,0,0,0,0,0,0,0,0,0,0,0,0,0,0,0,0,0,0,0,0,0,0,0],"id":4,"left_children":[1,3,5,7,9,11,13,15,17,-1,19,-1,21,23,25,27,29,-1,31,33,35,37,39,-1,-1,41,43,-1,-1,-1,-1,-1,-1,-1,-1,-1,-1,-1,-1,-1,-1,-1,-1,-1,-1],"loss_changes":[2.4696857E4,1.4777773E3,3.5040967E3,7.817744E2,5.651328E2,1.9676267E3,3.613994E2,3.3026562E2,1.2200526E3,0E0,1.9083942E2,0E0,1.890297E3,5.473633E0,2.5358496E2,9.2081055E1,1.3024982E2,0E0,1.988628E2,1.1201524E2,1.0597052E2,6.9078204E2,8.345996E2,0E0,0E0,9.29848E1,9.989258E1,0E0,0E0,0E0,0E0,0E0,0E0,0E0,0E0,0E0,0E0,0E0,0E0,0E0,0E0,0E0,0E0,0E0,0E0],"parents":[2147483647,0,0,1,1,2,2,3,3,4,4,5,5,6,6,7,7,8,8,10,10,12,12,13,13,14,14,15,15,16,16,18,18,19,19,20,20,21,21,22,22,25,25,26,26],"right_children":[2,4,6,8,10,12,14,16,18,-1,20,-1,22,24,26,28,30,-1,32,34,36,38,40,-1,-1,42,44,-1,-1,-1,-1,-1,-1,-1,-1,-1,-1,-1,-1,-1,-1,-1,-1,-1,-1],"split_conditions":[-9.304262E-1,-4.835586E-1,-4.835586E-1,-9.1865295E-1,2.1349108E0,1.0981215E0,2.1349108E0,3.500512E-1,1.1199328E0,1.8217467E-1,-9.1865295E-1,1.7856504E-1,-9.1865295E-1,-9.1865295E-1,-9.1865295E-1,-8.4317917E-1,6.330031E-1,1.6532998E-1,-3.501432E-1,4.5852684E-3,1.1199328E0,4.5852684E-3,1.1199328E0,1.9162564E-1,1.7181592E-1,-3.501432E-1,1.6347102E0,-1.268919E-1,-1.07016854E-1,2.6964793E-1,-7.310324E-2,-7.7177934E-2,1.7536197E-2,-8.61057E-2,-9.015502E-3,1.7847411E-1,1.7807003E-2,-6.780233E-2,1.6408555E-2,1.7151201E-1,5.424368E-2,6.0330834E-2,1.2982368E-1,1.3950531E-1,8.5007034E-2],"split_indices":[1,4,4,3,4,1,4,5,3,0,3,0,3,3,3,5,5,0,8,5,3,5,3,0,0,8,5,0,0,0,0,0,0,0,0,0,0,0,0,0,0,0,0,0,0],"split_type":[0,0,0,0,0,0,0,0,0,0,0,0,0,0,0,0,0,0,0,0,0,0,0,0,0,0,0,0,0,0,0,0,0,0,0,0,0,0,0,0,0,0,0,0,0],"sum_hessian":[3.6010445E4,1.7361771E4,1.8648674E4,1.5864752E4,1.49702E3,1.1878817E4,6.769857E3,1.1361272E4,4.503479E3,1.6583109E2,1.331189E3,1.0322568E3,1.0846561E4,1.849644E3,4.920213E3,9.46131E3,1.8999629E3,2.2725706E2,4.2762217E3,7.544961E2,5.766929E2,3.9414902E3,6.90507E3,2.5020045E2,1.5994436E3,1.0195981E3,3.9006147E3,4.690504E3,4.7708057E3,1.01960745E1,1.8897667E3,4.0420369E3,2.3418512E2,3.626842E2,3.918119E2,4.3510567E1,5.331823E2,1.7558776E3,2.1856128E3,6.7173663E2,6.2333335E3,7.606448E2,2.5895328E2,3.522363E3,3.7825156E2],"tree_param":{"num_deleted":"0","num_feature":"11","num_nodes":"45","size_leaf_vector":"1"}},{"base_weights":[-5.456048E-3,-8.093117E-1,7.24938E-1,-1.1098292E0,-2.1618672E-1,-2.1186975E-1,1.1129789E0,-1.1800941E0,-8.480048E-1,-7.745811E-1,1.6227534E-1,1.6931604E-1,-3.1995586E-1,5.5763143E-1,1.274031E0,-1.2410525E0,-1.048305E0,2.3571327E-1,-8.6936176E-1,2.099243E-1,-8.29062E-1,-3.0215952E-1,7.547865E-1,-6.117463E-1,2.1870013E-1,1.6513923E-1,4.065422E-1,2.8403693E-1,1.3553597E0,-1.3050792E-1,-1.1875711E-1,2.5535902E-1,-1.0549497E-1,-9.463956E-2,-1.8381542E-2,-1.0048032E-1,-2.4058107E-2,2.2349635E-1,-3.8581427E-2,4.9592275E-2,1.2776801E-1,-9.933115E-2,-3.0385247E-2,-5.2940805E-2,7.034971E-2,-1.7478183E-2,6.59989E-2,1.5984824E-1,4.1883384E-4,1.1716203E-1,1.4912258E-1],"categories":[],"categories_nodes":[],"categories_segments":[],"categories_sizes":[],"default_left":[0,0,0,0,0,0,0,0,0,0,0,0,0,0,0,0,0,0,0,0,0,0,0,0,0,0,0,0,0,0,0,0,0,0,0,0,0,0,0,0,0,0,0,0,0,0,0,0,0,0,0],"id":5,"left_children":[1,3,5,7,9,11,13,15,17,19,21,-1,23,25,27,29,31,-1,33,-1,35,37,39,41,43,-1,45,47,49,-1,-1,-1,-1,-1,-1,-1,-1,-1,-1,-1,-1,-1,-1,-1,-1,-1,-1,-1,-1,-1,-1],"loss_changes":[2.062794E4,2.981005E3,6.6918477E3,2.032207E2,1.1890299E3,1.1108748E3,1.1634785E3,6.8990234E1,1.630697E2,3.575929E2,9.231817E2,0E0,8.023081E2,4.831922E2,8.1196387E2,1.8916992E1,6.907373E1,0E0,1.2326868E2,0E0,2.305155E2,4.0007013E2,1.9889221E2,3.8864514E2,6.510237E2,0E0,3.7934402E2,2.8220404E2,2.31E2,0E0,0E0,0E0,0E0,0E0,0E0,0E0,0E0,0E0,0E0,0E0,0E0,0E0,0E0,0E0,0E0,0E0,0E0,0E0,0E0,0E0,0E0],"parents":[2147483647,0,0,1,1,2,2,3,3,4,4,5,5,6,6,7,7,8,8,9,9,10,10,12,12,13,13,14,14,15,15,16,16,18,18,20,20,21,21,22,22,23,23,24,24,26,26,27,27,28,28],"right_children":[2,4,6,8,10,12,14,16,18,20,22,-1,24,26,28,30,32,-1,34,-1,36,38,40,42,44,-1,46,48,50,-1,-1,-1,-1,-1,-1,-1,-1,-1,-1,-1,-1,-1,-1,-1,-1,-1,-1,-1,-1,-1,-1],"split_conditions":[-9.304262E-1,-4.1836113E-1,-4.1836113E-1,3.500512E-1,-5.343161E-1,1.0981215E0,-3.6632362E-1,-2.1130842E-1,6.4713275E-1,3.9053658E-1,-2.1130842E-1,1.6931604E-1,6.926154E-2,1.0981215E0,-8.4317917E-1,-1.0211117E0,-1.02285035E-1,2.3571327E-1,1.8910274E-1,2.099243E-1,4.0205184E-1,3.9053658E-1,4.0205184E-1,3.500512E-1,4.5852684E-3,1.6513923E-1,-9.1865295E-1,1.0981215E0,4.128056E-1,-1.3050792E-1,-1.1875711E-1,2.5535902E-1,-1.0549497E-1,-9.463956E-2,-1.8381542E-2,-1.0048032E-1,-2.4058107E-2,2.2349635E-1,-3.8581427E-2,4.9592275E-2,1.2776801E-1,-9.933115E-2,-3.0385247E-2,-5.2940805E-2,7.034971E-2,-1.7478183E-2,6.59989E-2,1.5984824E-1,4.1883384E-4,1.1716203E-1,1.4912258E-1],"split_indices":[1,0,0,5,5,1,2,2,5,0,2,0,2,1,5,0,2,0,2,0,0,0,0,5,5,0,3,1,2,0,0,0,0,0,0,0,0,0,0,0,0,0,0,0,0,0,0,0,0,0,0],"split_type":[0,0,0,0,0,0,0,0,0,0,0,0,0,0,0,0,0,0,0,0,0,0,0,0,0,0,0,0,0,0,0,0,0,0,0,0,0,0,0,0,0,0,0,0,0,0,0,0,0,0,0],"sum_hessian":[3.513143E4,1.6724598E4,1.8406832E4,1.1099808E4,5.624789E3,5.391394E3,1.3015438E4,8.748495E3,2.3513132E3,2.2718242E3,3.3529648E3,2.8868164E2,5.1027124E3,2.9269727E3,1.0088466E4,5.9759414E3,2.7725532E3,1.4839982E1,2.3364734E3,4.1568832E1,2.2302554E3,1.8799062E3,1.4730586E3,3.3097058E3,1.7930065E3,3.540457E2,2.572927E3,7.661987E2,9.322268E3,2.7091792E3,3.2667622E3,4.3994155E0,2.7681538E3,2.100107E3,2.363664E2,1.7168391E3,5.134163E2,5.918537E1,1.820721E3,9.8658704E2,4.864716E2,1.4770314E3,1.8326744E3,7.050011E2,1.0880054E3,7.8126666E2,1.7916604E3,1.3366481E2,6.3253394E2,3.9670393E3,5.355228E3],"tree_param":{"num_deleted":"0","num_feature":"11","num_nodes":"51","size_leaf_vector":"1"}},{"base_weights":[-4.421945E-3,-7.605174E-1,6.6416E-1,-1.0551566E0,-2.019625E-1,-1.963418E-1,1.0240835E0,-1.1547318E0,-8.501322E-1,-6.3033015E-1,2.4746817E-1,1.5861039E-1,-2.9350856E-1,5.167437E-1,1.1730508E0,-1.2101246E0,-1.0384806E0,2.7111903E-1,-8.646085E-1,1.933884E-1,-6.8830764E-1,-2.92083E-1,7.338517E-1,-7.476719E-1,-2.522269E-3,1.5536457E-1,3.7757483E-1,4.654815E-1,1.278154E0,-1.2647766E-1,-1.16511844E-1,2.1715544E-1,-1.045025E-1,-9.016444E-2,4.105154E-2,-8.8465795E-2,-9.838139E-3,2.0682256E-1,-3.6780782E-2,4.2037718E-2,1.24072626E-1,-9.574624E-2,-4.4826023E-2,-4.5959692E-2,5.0126445E-2,-7.896752E-2,4.8936736E-2,-2.5372428E-3,9.830987E-2,1.1053655E-1,1.4106219E-1],"categories":[],"categories_nodes":[],"categories_segments":[],"categories_sizes":[],"default_left":[0,0,0,0,0,0,0,0,0,0,0,0,0,0,0,0,0,0,0,0,0,0,0,0,0,0,0,0,0,0,0,0,0,0,0,0,0,0,0,0,0,0,0,0,0,0,0,0,0,0,0],"id":6,"left_children":[1,3,5,7,9,11,13,15,17,19,21,-1,23,25,27,29,31,-1,33,-1,35,37,39,41,43,-1,45,47,49,-1,-1,-1,-1,-1,-1,-1,-1,-1,-1,-1,-1,-1,-1,-1,-1,-1,-1,-1,-1,-1,-1],"loss_changes":[1.7278402E4,2.6395596E3,5.618367E3,2.1339453E2,1.066824E3,9.271539E2,9.6604297E2,4.4240234E1,1.7951392E2,4.2310034E2,7.099531E2,0E0,6.706614E2,4.1860205E2,7.346299E2,1.0281738E1,5.031665E1,0E0,1.6204004E2,0E0,3.213496E2,2.3005612E2,2.2552069E2,1.24051636E2,7.126949E2,0E0,3.34762E2,3.252853E2,1.9544922E2,0E0,0E0,0E0,0E0,0E0,0E0,0E0,0E0,0E0,0E0,0E0,0E0,0E0,0E0,0E0,0E0,0E0,0E0,0E0,0E0,0E0,0E0],"parents":[2147483647,0,0,1,1,2,2,3,3,4,4,5,5,6,6,7,7,8,8,9,9,10,10,12,12,13,13,14,14,15,15,16,16,18,18,20,20,21,21,22,22,23,23,24,24,26,26,27,27,28,28],"right_children":[2,4,6,8,10,12,14,16,18,20,22,-1,24,26,28,30,32,-1,34,-1,36,38,40,42,44,-1,46,48,50,-1,-1,-1,-1,-1,-1,-1,-1,-1,-1,-1,-1,-1,-1,-1,-1,-1,-1,-1,-1,-1,-1],"split_conditions":[-9.304262E-1,-4.1836113E-1,-4.1836113E-1,4.5852684E-3,-3.146336E-1,1.0981215E0,-3.6632362E-1,-2.1130842E-1,3.1794024E-1,3.9053658E-1,-3.6632362E-1,1.5861039E-1,-3.6632362E-1,1.0981215E0,-5.343161E-1,-1.0211117E0,-1.02285035E-1,2.7111903E-1,7.871432E-1,1.933884E-1,4.0205184E-1,3.9053658E-1,4.128056E-1,6.790295E-1,3.500512E-1,1.5536457E-1,-5.343161E-1,4.0205184E-1,4.128056E-1,-1.2647766E-1,-1.16511844E-1,2.1715544E-1,-1.045025E-1,-9.016444E-2,4.105154E-2,-8.8465795E-2,-9.838139E-3,2.0682256E-1,-3.6780782E-2,4.2037718E-2,1.24072626E-1,-9.574624E-2,-4.4826023E-2,-4.5959692E-2,5.0126445E-2,-7.896752E-2,4.8936736E-2,-2.5372428E-3,9.830987E-2,1.1053655E-1,1.4106219E-1],"split_indices":[1,0,0,5,5,1,2,2,5,0,2,0,2,1,5,0,2,0,2,0,0,0,2,5,5,0,5,0,2,0,0,0,0,0,0,0,0,0,0,0,0,0,0,0,0,0,0,0,0,0,0],"split_type":[0,0,0,0,0,0,0,0,0,0,0,0,0,0,0,0,0,0,0,0,0,0,0,0,0,0,0,0,0,0,0,0,0,0,0,0,0,0,0,0,0,0,0,0,0,0,0,0,0,0,0],"sum_hessian":[3.4178023E4,1.6039221E4,1.81388E4,1.049971E4,5.539511E3,5.349566E3,1.2789235E4,7.064181E3,3.4355283E3,2.8360107E3,2.7035005E3,2.7575418E2,5.0738115E3,2.9038894E3,9.885346E3,4.7780596E3,2.2861218E3,1.3154297E1,3.422374E3,6.198974E1,2.774021E3,1.2818871E3,1.4216135E3,1.980747E3,3.0930647E3,3.424255E2,2.5614639E3,1.2791775E3,8.606169E3,2.1455554E3,2.632504E3,3.9782553E0,2.2821436E3,3.3260618E3,9.631215E1,2.080913E3,6.931079E2,3.9029903E1,1.2428572E3,8.7951227E2,5.421013E2,1.16339E3,8.1735693E2,1.6217627E3,1.4713019E3,2.233504E2,2.3381133E3,6.5705054E2,6.2212695E2,3.7387512E3,4.8674175E3],"tree_param":{"num_deleted":"0","num_feature":"11","num_nodes":"51","size_leaf_vector":"1"}},{"base_weights":[-6.5173674E-3,-7.1588147E-1,6.105091E-1,-1.0056074E0,-1.8651515E-1,-1.7742814E-1,9.433194E-1,-1.0847815E0,-7.225915E-1,-5.9102446E-1,2.2305465E-1,1.4998092E-1,-2.6764926E-1,5.5088395E-1,1.1193364E0,-1.2042549E0,-1.0047568E0,2.206767E-1,-7.455823E-1,1.7768139E-1,-6.4670455E-1,-1.7220888E-1,7.417864E-1,-7.6101905E-1,-2.7381564E-2,1.4882259E-1,4.2804348E-1,2.7581975E-1,1.1924729E0,-1.2116225E-1,-1.0318502E-1,2.812646E-1,-1.0186956E-1,-8.715593E-2,-2.5220616E-2,-8.7371185E-2,-1.2087008E-2,1.8659343E-1,-2.3871876E-2,4.4566225E-2,1.0746826E-1,-9.284333E-2,-1.8769955E-2,-4.3653555E-2,4.3776914E-2,-1.0354965E-1,5.138377E-2,1.4801538E-1,3.1852566E-3,1.0161737E-1,1.3491085E-1],"categories":[],"categories_nodes":[],"categories_segments":[],"categories_sizes":[],"default_left":[0,0,0,0,0,0,0,0,0,0,0,0,0,0,0,0,0,0,0,0,0,0,0,0,0,0,0,0,0,0,0,0,0,0,0,0,0,0,0,0,0,0,0,0,0,0,0,0,0,0,0],"id":7,"left_children":[1,3,5,7,9,11,13,15,17,19,21,-1,23,25,27,29,31,-1,33,-1,35,37,39,41,43,-1,45,47,49,-1,-1,-1,-1,-1,-1,-1,-1,-1,-1,-1,-1,-1,-1,-1,-1,-1,-1,-1,-1,-1,-1],"loss_changes":[1.4529557E4,2.368213E3,4.655659E3,2.2283984E2,9.052811E2,7.982827E2,8.615469E2,7.333008E1,1.4877246E2,3.6357605E2,5.568921E2,0E0,5.9320825E2,4.445963E2,5.311904E2,2.715332E0,2.5162207E2,0E0,1.345498E2,0E0,3.205813E2,2.094666E2,1.15302E2,1.5713257E2,6.4089856E2,0E0,4.29976E2,2.0231111E2,2.1755957E2,0E0,0E0,0E0,0E0,0E0,0E0,0E0,0E0,0E0,0E0,0E0,0E0,0E0,0E0,0E0,0E0,0E0,0E0,0E0,0E0,0E0,0E0],"parents":[2147483647,0,0,1,1,2,2,3,3,4,4,5,5,6,6,7,7,8,8,9,9,10,10,12,12,13,13,14,14,15,15,16,16,18,18,20,20,21,21,22,22,23,23,24,24,26,26,27,27,28,28],"right_children":[2,4,6,8,10,12,14,16,18,20,22,-1,24,26,28,30,32,-1,34,-1,36,38,40,42,44,-1,46,48,50,-1,-1,-1,-1,-1,-1,-1,-1,-1,-1,-1,-1,-1,-1,-1,-1,-1,-1,-1,-1,-1,-1],"split_conditions":[-9.304262E-1,-4.1836113E-1,-4.1836113E-1,3.500512E-1,-3.146336E-1,1.0981215E0,-2.1130842E-1,-1.0211117E0,6.4713275E-1,3.9053658E-1,-2.1130842E-1,1.4998092E-1,4.5852684E-3,1.0981215E0,-8.4317917E-1,6.824603E-1,-5.153807E-1,2.206767E-1,-2.0501561E-2,1.7768139E-1,-9.1865295E-1,3.9053658E-1,4.128056E-1,4.9639964E-1,-2.1130842E-1,1.4882259E-1,-8.4317917E-1,1.0981215E0,4.0205184E-1,-1.2116225E-1,-1.0318502E-1,2.812646E-1,-1.0186956E-1,-8.715593E-2,-2.5220616E-2,-8.7371185E-2,-1.2087008E-2,1.8659343E-1,-2.3871876E-2,4.4566225E-2,1.0746826E-1,-9.284333E-2,-1.8769955E-2,-4.3653555E-2,4.3776914E-2,-1.0354965E-1,5.138377E-2,1.4801538E-1,3.1852566E-3,1.0161737E-1,1.3491085E-1],"split_indices":[1,0,0,5,5,1,2,0,5,0,2,0,5,1,5,2,0,0,2,0,3,0,2,2,2,0,5,1,0,0,0,0,0,0,0,0,0,0,0,0,0,0,0,0,0,0,0,0,0,0,0],"split_type":[0,0,0,0,0,0,0,0,0,0,0,0,0,0,0,0,0,0,0,0,0,0,0,0,0,0,0,0,0,0,0,0,0,0,0,0,0,0,0,0,0,0,0,0,0,0,0,0,0,0,0],"sum_hessian":[3.319351E4,1.5441286E4,1.7752225E4,9.978877E3,5.4624097E3,5.27173E3,1.2480495E4,7.795297E3,2.18358E3,2.7479597E3,2.7144502E3,2.6830154E2,5.003428E3,3.8657693E3,8.614726E3,3.1212944E3,4.6740024E3,1.6264437E1,2.1673157E3,6.2423912E1,2.6855356E3,1.5409468E3,1.1735034E3,1.6379227E3,3.3655056E3,4.4662833E2,3.419141E3,6.877198E2,7.9270063E3,2.9875947E3,1.3369957E2,1.6273998E1,4.6577285E3,1.7258708E3,4.414448E2,1.8752938E3,8.1024194E2,4.784103E1,1.4931057E3,6.2229047E2,5.5121295E2,1.2672542E3,3.7066864E2,1.790561E3,1.5749445E3,1.8872159E2,3.2304194E3,1.14993256E2,5.7272656E2,3.7329358E3,4.1940703E3],"tree_param":{"num_deleted":"0","num_feature":"11","num_nodes":"51","size_leaf_vector":"1"}},{"base_weights":[-4.812777E-3,-6.7099416E-1,5.61396E-1,-9.593588E-1,-1.6618209E-1,-1.687541E-1,8.7205106E-1,-1.0682478E0,-7.4347574E-1,-7.6257396E-1,8.3346896E-2,1.430783E-1,-2.508378E-1,6.326205E-2,9.581892E-1,-1.1303577E0,-9.404215E-1,-1.0454831E0,-5.3974766E-1,1.5724862E-1,-7.9907644E-1,-1.2500481E-1,7.8989846E-1,-4.5141384E-1,2.4467775E-1,1.3943644E-1,-1.00181706E-1,3.1516606E-1,1.0513322E0,-1.1898922E-1,-1.0823359E-1,-1.05352305E-1,-7.280669E-2,1.3704942E-1,-1.048726E-1,2.660831E-1,-5.693061E-2,-8.8116534E-2,1.6147627E-3,1.7858511E-1,-1.9183967E-2,4.947894E-2,1.13591686E-1,-8.0012195E-2,-1.7552558E-2,-7.286679E-2,4.5527443E-2,-4.6308916E-2,2.8204693E-2,-1.4576094E-2,8.344411E-2,8.530159E-2,1.24407604E-1],"categories":[],"categories_nodes":[],"categories_segments":[],"categories_sizes":[],"default_left":[0,0,0,0,0,0,0,0,0,0,0,0,0,0,0,0,0,0,0,0,0,0,0,0,0,0,0,0,0,0,0,0,0,0,0,0,0,0,0,0,0,0,0,0,0,0,0,0,0,0,0,0,0],"id":8,"left_children":[1,3,5,7,9,11,13,15,17,19,21,-1,23,25,27,29,31,33,35,-1,37,39,41,43,45,-1,47,49,51,-1,-1,-1,-1,-1,-1,-1,-1,-1,-1,-1,-1,-1,-1,-1,-1,-1,-1,-1,-1,-1,-1,-1,-1],"loss_changes":[1.2142821E4,2.1528726E3,3.947314E3,2.2048145E2,8.0045276E2,6.8242285E2,8.504404E2,4.8594727E1,1.9381714E2,1.3649097E2,5.584335E2,0E0,4.913025E2,2.56014E2,6.6046094E2,1.0732422E1,4.8499878E1,1.1400024E1,1.8019086E2,0E0,1.04600586E2,3.745233E2,8.76496E1,3.383485E2,2.923729E2,0E0,1.4556085E2,3.3457574E2,3.672871E2,0E0,0E0,0E0,0E0,0E0,0E0,0E0,0E0,0E0,0E0,0E0,0E0,0E0,0E0,0E0,0E0,0E0,0E0,0E0,0E0,0E0,0E0,0E0,0E0],"parents":[2147483647,0,0,1,1,2,2,3,3,4,4,5,5,6,6,7,7,8,8,9,9,10,10,12,12,13,13,14,14,15,15,16,16,17,17,18,18,20,20,21,21,22,22,23,23,24,24,26,26,27,27,28,28],"right_children":[2,4,6,8,10,12,14,16,18,20,22,-1,24,26,28,30,32,34,36,-1,38,40,42,44,46,-1,48,50,52,-1,-1,-1,-1,-1,-1,-1,-1,-1,-1,-1,-1,-1,-1,-1,-1,-1,-1,-1,-1,-1,-1,-1,-1],"split_conditions":[-9.304262E-1,-4.1836113E-1,-4.1836113E-1,4.5852684E-3,-8.4317917E-1,1.0981215E0,-7.340384E-1,-2.1130842E-1,-1.0211117E0,3.9053658E-1,4.128056E-1,1.430783E-1,1.8910274E-1,1.0981215E0,-5.343161E-1,-1.0211117E0,-5.343161E-1,3.1794024E-1,-5.153807E-1,1.5724862E-1,1.4098334E0,3.9053658E-1,4.5852684E-3,3.500512E-1,-5.343161E-1,1.3943644E-1,4.0205184E-1,4.0205184E-1,4.0205184E-1,-1.1898922E-1,-1.0823359E-1,-1.05352305E-1,-7.280669E-2,1.3704942E-1,-1.048726E-1,2.660831E-1,-5.693061E-2,-8.8116534E-2,1.6147627E-3,1.7858511E-1,-1.9183967E-2,4.947894E-2,1.13591686E-1,-8.0012195E-2,-1.7552558E-2,-7.286679E-2,4.5527443E-2,-4.6308916E-2,2.8204693E-2,-1.4576094E-2,8.344411E-2,8.530159E-2,1.24407604E-1],"split_indices":[1,0,0,5,5,1,2,2,0,0,2,0,2,1,5,0,5,5,0,0,2,0,5,5,5,0,0,0,0,0,0,0,0,0,0,0,0,0,0,0,0,0,0,0,0,0,0,0,0,0,0,0,0],"split_type":[0,0,0,0,0,0,0,0,0,0,0,0,0,0,0,0,0,0,0,0,0,0,0,0,0,0,0,0,0,0,0,0,0,0,0,0,0,0,0,0,0,0,0,0,0,0,0,0,0,0,0,0,0],"sum_hessian":[3.2190191E4,1.4789361E4,1.740083E4,9.412019E3,5.3773433E3,5.193861E3,1.2206969E4,6.2537485E3,3.1582698E3,1.5855974E3,3.7917458E3,2.52722E2,4.9411387E3,1.1751072E3,1.1031861E4,4.203469E3,2.0502795E3,1.2705983E3,1.8876715E3,2.375743E1,1.56184E3,2.9288838E3,8.628619E2,3.5174326E3,1.4237064E3,1.2768627E2,1.0474209E3,1.3963557E3,9.635506E3,1.866154E3,2.3373152E3,1.3351879E3,7.150917E2,1.1380488E0,1.2694602E3,1.6459164E1,1.8712124E3,1.4188848E3,1.4295529E2,9.811064E1,2.8307732E3,4.6700052E2,3.9586136E2,1.5528336E3,1.9645989E3,2.5280774E2,1.1708987E3,5.3718164E2,5.1023932E2,7.40119E2,6.5623663E2,4.751773E3,4.883733E3],"tree_param":{"num_deleted":"0","num_feature":"11","num_nodes":"53","size_leaf_vector":"1"}},{"base_weights":[-5.3921673E-3,-6.3108647E-1,5.1811856E-1,-8.133928E-1,-2.4275845E-1,2.1057537E-1,9.1031563E-1,-8.9449966E-1,-2.3104486E-1,1.6012727E-1,-3.7232363E-1,1.387968E-1,1.0258638E-1,4.387498E-1,1.0845394E0,-9.9172765E-1,-5.056455E-1,-5.8323675E-1,1.7270604E-1,-5.723629E-1,1.0831891E-1,-8.840713E-2,8.1135195E-1,-1.361761E-1,7.394123E-1,-4.5354586E-2,1.1049805E0,-1.0050058E-1,-2.1955734E-2,-8.573112E-2,-1.9520983E-2,2.8077558E-1,-6.1273564E-2,-1.7173135E-3,1.24686E-1,-6.342295E-2,2.1006526E-2,-4.19089E-2,3.746882E-2,-7.220492E-2,6.416221E-3,1.6520272E-1,4.447884E-2,1.4133811E-1,-2.8532041E-2,3.8300324E-2,8.903163E-2,1.3864946E-1,-5.2138913E-2,9.702348E-2,1.23996556E-1],"categories":[],"categories_nodes":[],"categories_segments":[],"categories_sizes":[],"default_left":[0,0,0,0,0,0,0,0,0,0,0,0,0,0,0,0,0,0,0,0,0,0,0,0,0,0,0,0,0,0,0,0,0,0,0,0,0,0,0,0,0,0,0,0,0,0,0,0,0,0,0],"id":9,"left_children":[1,3,5,7,9,11,13,15,17,-1,19,-1,21,23,25,27,29,31,33,35,37,39,41,43,45,47,49,-1,-1,-1,-1,-1,-1,-1,-1,-1,-1,-1,-1,-1,-1,-1,-1,-1,-1,-1,-1,-1,-1,-1,-1],"loss_changes":[1.0218204E4,1.0058428E3,2.0484316E3,4.565415E2,1.0856504E3,1.2103978E3,6.127959E2,3.2039697E2,1.6839542E2,0E0,4.081234E2,0E0,1.1807802E3,3.4849655E2,1.2592578E2,6.938672E1,1.85397E2,6.4974945E1,1.1264234E2,1.4520721E2,1.7549767E2,6.643491E2,5.698425E2,1.6054518E2,7.084491E1,6.738849E1,9.616504E1,0E0,0E0,0E0,0E0,0E0,0E0,0E0,0E0,0E0,0E0,0E0,0E0,0E0,0E0,0E0,0E0,0E0,0E0,0E0,0E0,0E0,0E0,0E0,0E0],"parents":[2147483647,0,0,1,1,2,2,3,3,4,4,5,5,6,6,7,7,8,8,10,10,12,12,13,13,14,14,15,15,16,16,17,17,18,18,19,19,20,20,21,21,22,22,23,23,24,24,25,25,26,26],"right_children":[2,4,6,8,10,12,14,16,18,-1,20,-1,22,24,26,28,30,32,34,36,38,40,42,44,46,48,50,-1,-1,-1,-1,-1,-1,-1,-1,-1,-1,-1,-1,-1,-1,-1,-1,-1,-1,-1,-1,-1,-1,-1,-1],"split_conditions":[-9.304262E-1,-9.1865295E-1,1.8910274E-1,6.790295E-1,1.1199328E0,1.0981215E0,-9.1865295E-1,1.8910274E-1,-4.2641363E-1,1.6012727E-1,6.926154E-2,1.387968E-1,-3.501432E-1,-3.146336E-1,-1.3280222E0,-3.501432E-1,-8.4317917E-1,9.763252E-1,-3.501432E-1,-3.501432E-1,-5.343161E-1,-3.146336E-1,2.99104E0,1.0981215E0,4.9639964E-1,1.1118621E0,-4.835586E-1,-1.0050058E-1,-2.1955734E-2,-8.573112E-2,-1.9520983E-2,2.8077558E-1,-6.1273564E-2,-1.7173135E-3,1.24686E-1,-6.342295E-2,2.1006526E-2,-4.19089E-2,3.746882E-2,-7.220492E-2,6.416221E-3,1.6520272E-1,4.447884E-2,1.4133811E-1,-2.8532041E-2,3.8300324E-2,8.903163E-2,1.3864946E-1,-5.2138913E-2,9.702348E-2,1.23996556E-1],"split_indices":[1,3,2,5,3,1,3,2,2,0,2,0,8,5,5,8,5,5,8,8,5,5,8,1,2,3,4,0,0,0,0,0,0,0,0,0,0,0,0,0,0,0,0,0,0,0,0,0,0,0,0],"split_type":[0,0,0,0,0,0,0,0,0,0,0,0,0,0,0,0,0,0,0,0,0,0,0,0,0,0,0,0,0,0,0,0,0,0,0,0,0,0,0,0,0,0,0,0,0,0,0,0,0,0,0],"sum_hessian":[3.119313E4,1.4209677E4,1.6983455E4,9.669222E3,4.5404546E3,9.519909E3,7.4635454E3,8.486696E3,1.1825253E3,2.973319E2,4.243123E3,7.9880194E2,8.721107E3,2.0144952E3,5.4490503E3,6.787915E3,1.6987811E3,6.3135223E2,5.511731E2,2.9960159E3,1.2471069E3,6.870552E3,1.8505562E3,6.9193207E2,1.3225631E3,9.680611E1,5.352244E3,6.672867E3,1.1504789E2,7.956719E2,9.031093E2,4.6326494E0,6.2671954E2,4.6921375E2,8.195933E1,2.7766553E3,2.1936052E2,4.1830157E2,8.2880536E2,1.33255E3,5.5380015E3,5.608343E2,1.2897218E3,6.0006718E1,6.3192535E2,3.9445856E2,9.2810455E2,2.3676804E1,7.31293E1,2.682595E3,2.6696492E3],"tree_param":{"num_deleted":"0","num_feature":"11","num_nodes":"51","size_leaf_vector":"1"}},{"base_weights":[-4.9457243E-3,-6.1992073E-1,4.9570462E-1,-9.069778E-1,-3.0051246E-1,-4.122027E-1,6.425681E-1,-9.694536E-1,-5.0611717E-1,-6.6368777E-1,6.481459E-2,-6.124717E-1,4.8363942E-1,1.4083543E-1,8.5308707E-1,-1.11398E0,-8.813417E-1,-7.659613E-1,-1.2841855E-1,-9.765271E-1,-4.866261E-1,-5.696588E-1,2.6973683E-1,1.5610968E-1,-6.616968E-1,-1.31634E-1,8.152145E-1,1.6916668E-1,7.095833E-2,6.161238E-1,1.1263316E0,-1.1186134E-1,-5.6306876E-2,2.487876E-1,-8.992932E-2,1.9905291E-1,-7.796765E-2,-6.290277E-2,-6.072318E-4,-7.282713E-2,-1.0250671E-1,2.2955477E-1,-5.3136945E-2,-6.8175815E-2,5.6646194E-2,1.8207972E-1,2.2458185E-2,-8.7221496E-2,-1.3001295E-2,-5.180912E-2,3.892721E-2,1.1056989E-1,2.517202E-2,-2.6859948E-2,5.2096732E-2,1.8479431E-2,8.361315E-2,1.4067131E-1,1.0587239E-1],"categories":[],"categories_nodes":[],"categories_segments":[],"categories_sizes":[],"default_left":[0,0,0,0,0,0,0,0,0,0,0,0,0,0,0,0,0,0,0,0,0,0,0,0,0,0,0,0,0,0,0,0,0,0,0,0,0,0,0,0,0,0,0,0,0,0,0,0,0,0,0,0,0,0,0,0,0,0,0],"id":10,"left_children":[1,3,5,7,9,11,13,15,17,19,21,23,25,27,29,31,33,35,37,39,41,43,45,-1,47,49,51,-1,53,55,57,-1,-1,-1,-1,-1,-1,-1,-1,-1,-1,-1,-1,-1,-1,-1,-1,-1,-1,-1,-1,-1,-1,-1,-1,-1,-1,-1,-1],"loss_changes":[9.309915E3,1.2439097E3,2.2227979E3,1.7848145E2,8.524189E2,4.167893E2,1.5153652E3,7.773779E1,9.467705E1,1.7798535E2,4.1668185E2,2.0408173E2,8.675232E1,4.595731E2,6.5371826E2,5.336914E0,2.347981E2,2.3173157E1,2.4176064E1,1.3273193E1,2.5757526E2,1.0003459E2,1.6923752E2,0E0,2.076753E2,3.0315273E1,4.4918945E1,0E0,6.205442E2,5.13708E2,8.746875E1,0E0,0E0,0E0,0E0,0E0,0E0,0E0,0E0,0E0,0E0,0E0,0E0,0E0,0E0,0E0,0E0,0E0,0E0,0E0,0E0,0E0,0E0,0E0,0E0,0E0,0E0,0E0,0E0],"parents":[2147483647,0,0,1,1,2,2,3,3,4,4,5,5,6,6,7,7,8,8,9,9,10,10,11,11,12,12,13,13,14,14,15,15,16,16,17,17,18,18,19,19,20,20,21,21,22,22,24,24,25,25,26,26,28,28,29,29,30,30],"right_children":[2,4,6,8,10,12,14,16,18,20,22,24,26,28,30,32,34,36,38,40,42,44,46,-1,48,50,52,-1,54,56,58,-1,-1,-1,-1,-1,-1,-1,-1,-1,-1,-1,-1,-1,-1,-1,-1,-1,-1,-1,-1,-1,-1,-1,-1,-1,-1,-1,-1],"split_conditions":[-4.1836113E-1,4.5852684E-3,-8.4317917E-1,4.9639964E-1,-3.6632362E-1,1.2416452E0,-3.6632362E-1,-1.0211117E0,-5.343161E-1,-1.0211117E0,-1.0211117E0,3.9053658E-1,-1.3280222E0,3.9053658E-1,4.0205184E-1,-3.501432E-1,-5.153807E-1,6.2315243E-1,-1.0211117E0,-7.192059E-2,-5.153807E-1,-4.835586E-1,-5.153807E-1,1.5610968E-1,4.0205184E-1,4.0205184E-1,4.7244927E-1,1.6916668E-1,4.0205184E-1,4.5852684E-3,1.2964538E0,-1.1186134E-1,-5.6306876E-2,2.487876E-1,-8.992932E-2,1.9905291E-1,-7.796765E-2,-6.290277E-2,-6.072318E-4,-7.282713E-2,-1.0250671E-1,2.2955477E-1,-5.3136945E-2,-6.8175815E-2,5.6646194E-2,1.8207972E-1,2.2458185E-2,-8.7221496E-2,-1.3001295E-2,-5.180912E-2,3.892721E-2,1.1056989E-1,2.517202E-2,-2.6859948E-2,5.2096732E-2,1.8479431E-2,8.361315E-2,1.4067131E-1,1.0587239E-1],"split_indices":[0,5,5,2,2,2,2,0,5,0,0,0,5,0,0,8,0,2,0,9,0,4,0,0,0,0,7,0,0,5,0,0,0,0,0,0,0,0,0,0,0,0,0,0,0,0,0,0,0,0,0,0,0,0,0,0,0,0,0],"split_type":[0,0,0,0,0,0,0,0,0,0,0,0,0,0,0,0,0,0,0,0,0,0,0,0,0,0,0,0,0,0,0,0,0,0,0,0,0,0,0,0,0,0,0,0,0,0,0,0,0,0,0,0,0,0,0,0,0,0,0],"sum_hessian":[3.0236045E4,1.3568684E4,1.6667361E4,7.145277E3,6.4234067E3,2.3204675E3,1.4346895E4,6.1805874E3,9.6468964E2,3.2207803E3,3.2026267E3,1.8967565E3,4.2371103E2,4.2409795E3,1.0105915E4,2.3364917E3,3.8440955E3,5.709009E2,3.937888E2,1.1624332E3,2.058347E3,7.814249E2,2.4212017E3,4.132463E1,1.8554318E3,1.4858974E2,2.751213E2,1.8184982E2,4.0591296E3,5.4140195E3,4.691895E3,2.315983E3,2.050882E1,1.9643932E1,3.8244514E3,2.112917E0,5.6878796E2,7.652538E1,3.172634E2,1.9272969E2,9.6970355E2,3.1782537E1,2.0265643E3,7.116112E2,6.98137E1,6.738045E1,2.3538213E3,1.3286985E3,5.2673334E2,8.530664E1,6.3283092E1,1.8090274E2,9.421855E1,2.3137068E3,1.7454229E3,1.8293615E3,3.5846582E3,9.0769714E2,3.784198E3],"tree_param":{"num_deleted":"0","num_feature":"11","num_nodes":"59","size_leaf_vector":"1"}},{"base_weights":[-5.5280393E-3,-5.817289E-1,4.565715E-1,-8.536558E-1,-1.4271781E-1,-1.234347E-1,7.201866E-1,-9.407667E-1,-5.7138824E-1,1.3328353E-1,-2.1238542E-1,-3.8690615E-1,2.638169E-1,3.0115372E-1,8.7017214E-1,-1.0883607E0,-8.476972E-1,-8.874069E-1,-3.759556E-1,-7.63785E-1,-5.508508E-2,-6.234392E-1,7.464294E-2,1.4496432E-1,1.3735358E-1,1.3475023E-1,1.9737622E-1,6.559301E-1,1.0810714E0,-1.0328882E-1,-1.1234423E-1,2.2346638E-1,-8.62174E-2,1.4896055E-1,-8.967737E-2,-6.826445E-2,-8.691484E-3,-5.98028E-2,-1.0244322E-1,-6.7329824E-2,1.1530939E-2,1.6424689E-1,-6.705745E-2,-5.9450556E-2,3.3336647E-2,-7.1875127E-3,5.79515E-2,-3.7778888E-2,3.7250366E-2,1.354714E-1,5.4274052E-2,8.4622785E-2,1.1459619E-1],"categories":[],"categories_nodes":[],"categories_segments":[],"categories_sizes":[],"default_left":[0,0,0,0,0,0,0,0,0,0,0,0,0,0,0,0,0,0,0,0,0,0,0,0,0,0,0,0,0,0,0,0,0,0,0,0,0,0,0,0,0,0,0,0,0,0,0,0,0,0,0,0,0],"id":11,"left_children":[1,3,5,7,9,11,13,15,17,-1,19,21,23,25,27,29,31,33,35,37,39,41,43,-1,45,-1,47,49,51,-1,-1,-1,-1,-1,-1,-1,-1,-1,-1,-1,-1,-1,-1,-1,-1,-1,-1,-1,-1,-1,-1,-1,-1],"loss_changes":[7.815478E3,1.5593813E3,2.4906663E3,1.9780957E2,5.1405334E2,5.195231E2,7.035962E2,8.3731445E1,1.17313965E2,0E0,4.1397876E2,3.308405E2,3.090019E2,3.2044635E2,3.719077E2,3.470459E0,1.7077905E2,1.7526001E1,1.04431595E2,4.515796E1,3.9141376E2,2.1508026E2,1.7809541E2,0E0,1.7250873E2,0E0,2.7091223E2,3.2303918E2,6.2336914E1,0E0,0E0,0E0,0E0,0E0,0E0,0E0,0E0,0E0,0E0,0E0,0E0,0E0,0E0,0E0,0E0,0E0,0E0,0E0,0E0,0E0,0E0,0E0,0E0],"parents":[2147483647,0,0,1,1,2,2,3,3,4,4,5,5,6,6,7,7,8,8,10,10,11,11,12,12,13,13,14,14,15,15,16,16,17,17,18,18,19,19,20,20,21,21,22,22,24,24,26,26,27,27,28,28],"right_children":[2,4,6,8,10,12,14,16,18,-1,20,22,24,26,28,30,32,34,36,38,40,42,44,-1,46,-1,48,50,52,-1,-1,-1,-1,-1,-1,-1,-1,-1,-1,-1,-1,-1,-1,-1,-1,-1,-1,-1,-1,-1,-1,-1,-1],"split_conditions":[-4.1836113E-1,-9.304262E-1,-9.304262E-1,3.500512E-1,1.0981215E0,-9.1865295E-1,-9.1865295E-1,-1.0211117E0,-1.0211117E0,1.3328353E-1,-6.1039394E-1,4.5852684E-3,1.1199328E0,1.0981215E0,1.8910274E-1,9.7827494E-1,-5.153807E-1,6.330031E-1,-4.2641363E-1,9.514205E-1,-3.146336E-1,3.9053658E-1,-7.340384E-1,1.4496432E-1,4.0205184E-1,1.3475023E-1,-4.2641363E-1,1.1199328E0,-3.146336E-1,-1.0328882E-1,-1.1234423E-1,2.2346638E-1,-8.62174E-2,1.4896055E-1,-8.967737E-2,-6.826445E-2,-8.691484E-3,-5.98028E-2,-1.0244322E-1,-6.7329824E-2,1.1530939E-2,1.6424689E-1,-6.705745E-2,-5.9450556E-2,3.3336647E-2,-7.1875127E-3,5.79515E-2,-3.7778888E-2,3.7250366E-2,1.354714E-1,5.4274052E-2,8.4622785E-2,1.1459619E-1],"split_indices":[0,1,1,5,1,3,3,0,0,0,2,5,3,1,2,9,0,5,2,7,5,0,2,0,0,0,2,3,5,0,0,0,0,0,0,0,0,0,0,0,0,0,0,0,0,0,0,0,0,0,0,0,0],"split_type":[0,0,0,0,0,0,0,0,0,0,0,0,0,0,0,0,0,0,0,0,0,0,0,0,0,0,0,0,0,0,0,0,0,0,0,0,0,0,0,0,0,0,0,0,0,0,0,0,0,0,0,0,0],"sum_hessian":[2.935057E4,1.3062468E4,1.6288103E4,8.0656167E3,4.996851E3,5.0898784E3,1.1198225E4,6.161712E3,1.9039045E3,2.2446988E2,4.7723813E3,3.0290366E3,2.0608418E3,2.9524934E3,8.245731E3,2.3787256E3,3.7829863E3,7.261553E2,1.1777493E3,1.0584038E3,3.7139775E3,2.002468E3,1.0265686E3,1.9759181E2,1.86325E3,2.6532626E2,2.6871672E3,4.0924875E3,4.1532437E3,9.3333966E2,1.445386E3,1.6967503E1,3.766019E3,2.22996E0,7.239253E2,5.7076886E2,6.0698035E2,6.48982E2,4.0942178E2,8.018415E2,2.912136E3,4.011666E1,1.9623513E3,2.858817E2,7.406869E2,1.2653362E3,5.9791376E2,6.2694745E2,2.0602197E3,5.689659E2,3.5235217E3,9.021903E2,3.2510535E3],"tree_param":{"num_deleted":"0","num_feature":"11","num_nodes":"53","size_leaf_vector":"1"}},{"base_weights":[-4.1520833E-3,-5.4599506E-1,4.2349678E-1,-8.189148E-1,-1.2623106E-1,-1.2108504E-1,6.7357415E-1,-9.0608466E-1,-5.4556745E-1,1.292422E-1,-1.904872E-1,-4.403104E-1,1.7006148E-1,4.4380438E-1,9.182428E-1,-9.9192995E-1,-7.3808664E-1,2.0705926E-1,-5.685508E-1,-7.09455E-1,-4.5265052E-2,1.5047689E-1,-4.854607E-1,-4.6586207E-1,3.6536688E-1,1.2904224E-1,3.5113707E-1,-3.6697423E-1,9.5598966E-1,-1.0860933E-1,-9.204207E-2,-9.071132E-2,-5.3502973E-2,-8.4579706E-2,-4.0074997E-2,-5.485505E-2,-9.735576E-2,-3.5675377E-2,2.482542E-2,-6.696125E-2,1.2827058E-3,1.4521366E-1,-5.0852615E-2,1.6492268E-1,3.0914623E-2,-5.298036E-2,4.4271898E-2,1.2791769E-1,-6.4959E-2,6.5933E-2,1.0448276E-1],"categories":[],"categories_nodes":[],"categories_segments":[],"categories_sizes":[],"default_left":[0,0,0,0,0,0,0,0,0,0,0,0,0,0,0,0,0,0,0,0,0,0,0,0,0,0,0,0,0,0,0,0,0,0,0,0,0,0,0,0,0,0,0,0,0,0,0,0,0,0,0],"id":12,"left_children":[1,3,5,7,9,11,13,15,17,-1,19,21,23,25,27,29,31,-1,33,35,37,-1,39,41,43,-1,45,47,49,-1,-1,-1,-1,-1,-1,-1,-1,-1,-1,-1,-1,-1,-1,-1,-1,-1,-1,-1,-1,-1,-1],"loss_changes":[6.6008125E3,1.4394236E3,2.1683027E3,1.8094043E2,4.516593E2,4.6581317E2,6.129668E2,8.250879E1,1.1203113E2,0E0,3.5707465E2,2.1067218E2,3.2576276E2,4.411339E2,2.566504E2,2.4702393E1,6.6642944E1,0E0,8.471997E1,4.348877E1,3.3868085E2,0E0,2.1446136E2,5.1177795E1,1.4429211E2,0E0,4.0965167E2,7.129478E1,1.3458008E2,0E0,0E0,0E0,0E0,0E0,0E0,0E0,0E0,0E0,0E0,0E0,0E0,0E0,0E0,0E0,0E0,0E0,0E0,0E0,0E0,0E0,0E0],"parents":[2147483647,0,0,1,1,2,2,3,3,4,4,5,5,6,6,7,7,8,8,10,10,11,11,12,12,13,13,14,14,15,15,16,16,18,18,19,19,20,20,22,22,23,23,24,24,26,26,27,27,28,28],"right_children":[2,4,6,8,10,12,14,16,18,-1,20,22,24,26,28,30,32,-1,34,36,38,-1,40,42,44,-1,46,48,50,-1,-1,-1,-1,-1,-1,-1,-1,-1,-1,-1,-1,-1,-1,-1,-1,-1,-1,-1,-1,-1,-1],"split_conditions":[-4.1836113E-1,-9.304262E-1,-9.304262E-1,3.500512E-1,1.0981215E0,-3.146336E-1,1.8910274E-1,-2.1130842E-1,6.4713275E-1,1.292422E-1,-6.1039394E-1,3.9053658E-1,-7.340384E-1,1.0981215E0,-1.3280222E0,-1.0211117E0,-5.343161E-1,2.0705926E-1,-1.0211117E0,9.514205E-1,3.500512E-1,1.5047689E-1,4.0205184E-1,3.9053658E-1,3.9053658E-1,1.2904224E-1,-5.343161E-1,1.0981215E0,-3.146336E-1,-1.0860933E-1,-9.204207E-2,-9.071132E-2,-5.3502973E-2,-8.4579706E-2,-4.0074997E-2,-5.485505E-2,-9.735576E-2,-3.5675377E-2,2.482542E-2,-6.696125E-2,1.2827058E-3,1.4521366E-1,-5.0852615E-2,1.6492268E-1,3.0914623E-2,-5.298036E-2,4.4271898E-2,1.2791769E-1,-6.4959E-2,6.5933E-2,1.0448276E-1],"split_indices":[0,1,1,5,1,5,2,2,5,0,2,0,2,1,5,0,5,0,0,7,5,0,0,0,0,0,5,1,5,0,0,0,0,0,0,0,0,0,0,0,0,0,0,0,0,0,0,0,0,0,0],"split_type":[0,0,0,0,0,0,0,0,0,0,0,0,0,0,0,0,0,0,0,0,0,0,0,0,0,0,0,0,0,0,0,0,0,0,0,0,0,0,0,0,0,0,0,0,0,0,0,0,0,0,0],"sum_hessian":[2.8484338E4,1.2564496E4,1.5919842E4,7.6134663E3,4.95103E3,5.0100986E3,1.0909743E4,5.770842E3,1.8426245E3,2.1370557E2,4.737324E3,2.3895657E3,2.6205327E3,5.627623E3,5.28212E3,3.816E3,1.9548419E3,1.5270919E1,1.8273536E3,1.0349453E3,3.702379E3,5.347626E1,2.3360894E3,6.1539435E2,2.0051384E3,5.539306E2,5.0736924E3,1.5046082E2,5.131659E3,1.6409763E3,2.1750237E3,1.064923E3,8.89919E2,6.874632E2,1.1398905E3,6.450348E2,3.899105E2,1.7961024E3,1.9062766E3,1.70546E3,6.306294E2,1.2672125E1,6.027222E2,8.293321E1,1.9222052E3,4.7733615E2,4.5963564E3,2.1529835E1,1.2893098E2,1.184532E3,3.9471274E3],"tree_param":{"num_deleted":"0","num_feature":"11","num_nodes":"51","size_leaf_vector":"1"}},{"base_weights":[-6.501286E-3,-5.137731E-1,3.8931677E-1,-7.818156E-1,-1.1779914E-1,-6.14763E-2,6.589586E-1,-9.0416247E-1,-5.6784624E-1,1.2563877E-1,-1.7522766E-1,-4.0304282E-1,3.0977532E-1,1.2853327E0,5.5030096E-1,-9.8723996E-1,-7.4687463E-1,2.7294835E-1,-5.8578324E-1,-4.8811525E-1,5.0948914E-2,-5.8504844E-1,2.3410644E-1,-4.4731918E-1,4.9577782E-1,1.3936187E-1,1.2678061E-1,-1.9289911E-1,6.4647484E-1,-1.0295754E-1,-8.129345E-2,-8.755347E-2,-5.252255E-2,-8.7298185E-2,-4.156215E-2,-6.421485E-2,-1.3273063E-2,1.6616443E-1,-5.7046544E-3,1.5443283E-1,-6.313353E-2,-3.9827734E-2,5.3454746E-2,1.5436195E-1,-5.0730076E-2,3.1575825E-2,9.4769806E-2,1.5746965E-1,-2.4576752E-2,4.074056E-2,9.260994E-2],"categories":[],"categories_nodes":[],"categories_segments":[],"categories_sizes":[],"default_left":[0,0,0,0,0,0,0,0,0,0,0,0,0,0,0,0,0,0,0,0,0,0,0,0,0,0,0,0,0,0,0,0,0,0,0,0,0,0,0,0,0,0,0,0,0,0,0,0,0,0,0],"id":13,"left_children":[1,3,5,7,9,11,13,15,17,-1,19,21,23,25,27,29,31,-1,33,35,37,39,41,43,45,-1,-1,47,49,-1,-1,-1,-1,-1,-1,-1,-1,-1,-1,-1,-1,-1,-1,-1,-1,-1,-1,-1,-1,-1,-1],"loss_changes":[5.529146E3,1.2809294E3,1.8802068E3,1.8789795E2,3.848025E2,7.343624E2,6.580303E2,5.907422E1,1.5661115E2,0E0,3.3112E2,3.4989777E2,3.910148E2,9.472656E-1,5.897832E2,2.124292E1,4.477301E1,0E0,1.27069275E2,1.073775E2,4.7262378E2,2.3222601E2,1.276707E2,6.6206474E1,1.80979E2,0E0,0E0,8.8791084E1,4.8793848E2,0E0,0E0,0E0,0E0,0E0,0E0,0E0,0E0,0E0,0E0,0E0,0E0,0E0,0E0,0E0,0E0,0E0,0E0,0E0,0E0,0E0,0E0],"parents":[2147483647,0,0,1,1,2,2,3,3,4,4,5,5,6,6,7,7,8,8,10,10,11,11,12,12,13,13,14,14,15,15,16,16,18,18,19,19,20,20,21,21,22,22,23,23,24,24,27,27,28,28],"right_children":[2,4,6,8,10,12,14,16,18,-1,20,22,24,26,28,30,32,-1,34,36,38,40,42,44,46,-1,-1,48,50,-1,-1,-1,-1,-1,-1,-1,-1,-1,-1,-1,-1,-1,-1,-1,-1,-1,-1,-1,-1,-1,-1],"split_conditions":[-4.1836113E-1,-9.304262E-1,-9.1865295E-1,4.5852684E-3,1.0981215E0,4.5852684E-3,1.1199328E0,-2.1130842E-1,3.1794024E-1,1.2563877E-1,-9.1865295E-1,7.871432E-1,-7.340384E-1,-9.304262E-1,-7.340384E-1,-9.1865295E-1,-5.343161E-1,2.7294835E-1,-1.0211117E0,6.790295E-1,1.1199328E0,3.9053658E-1,-1.0121901E0,3.9053658E-1,4.9639964E-1,1.3936187E-1,1.2678061E-1,3.9053658E-1,4.0205184E-1,-1.0295754E-1,-8.129345E-2,-8.755347E-2,-5.252255E-2,-8.7298185E-2,-4.156215E-2,-6.421485E-2,-1.3273063E-2,1.6616443E-1,-5.7046544E-3,1.5443283E-1,-6.313353E-2,-3.9827734E-2,5.3454746E-2,1.5436195E-1,-5.0730076E-2,3.1575825E-2,9.4769806E-2,1.5746965E-1,-2.4576752E-2,4.074056E-2,9.260994E-2],"split_indices":[0,1,3,5,1,5,3,2,5,0,3,2,2,1,2,3,5,0,0,5,3,0,5,0,2,0,0,0,0,0,0,0,0,0,0,0,0,0,0,0,0,0,0,0,0,0,0,0,0,0,0],"split_type":[0,0,0,0,0,0,0,0,0,0,0,0,0,0,0,0,0,0,0,0,0,0,0,0,0,0,0,0,0,0,0,0,0,0,0,0,0,0,0,0,0,0,0,0,0,0,0,0,0,0,0],"sum_hessian":[2.7535328E4,1.2068413E4,1.5466914E4,7.1961943E3,4.872219E3,5.7891914E3,9.677723E3,4.5762725E3,2.6199219E3,1.946091E2,4.67761E3,3.0150957E3,2.7740957E3,1.4290298E3,8.248692E3,2.9911226E3,1.5851501E3,1.3356978E1,2.6065647E3,1.9621112E3,2.7154988E3,2.3452441E3,6.698517E2,5.468445E2,2.2272512E3,1.8813504E2,1.2408948E3,9.450044E2,7.3036885E3,2.4026575E3,5.88465E2,1.0010964E3,5.840538E2,9.682404E2,1.6383245E3,1.3682627E3,5.938485E2,1.6972679E2,2.545772E3,4.920614E1,2.2960378E3,2.1563864E2,4.5421307E2,1.5269707E1,5.3157477E2,1.593993E3,6.3325824E2,2.6608082E1,9.1839636E2,3.938697E3,3.3649915E3],"tree_param":{"num_deleted":"0","num_feature":"11","num_nodes":"51","size_leaf_vector":"1"}},{"base_weights":[-4.5041516E-3,-4.137008E-1,3.535598E-1,-5.6703585E-1,1.0939366E-1,1.3109524E0,2.3176196E-1,-7.648177E-1,-1.7620224E-1,-4.1469547E-1,4.2127082E-1,1.367422E0,1.2498643E-1,3.6188394E-2,7.921227E-1,-9.5133525E-1,-6.460499E-1,-2.952729E-1,5.88123E-1,-8.415615E-1,-1.9767337E-1,5.794932E-1,1.0716349E-2,1.4610897E-1,1.3192634E-1,2.3791453E-1,-4.1681838E-1,2.2285609E-1,9.2137706E-1,-9.666726E-2,-5.5455666E-2,-8.356655E-2,-4.8161592E-2,1.9174288E-1,-3.2167386E-2,1.720026E-1,2.8219897E-2,-9.2400506E-2,-4.0320642E-2,2.5876269E-2,-5.4294266E-2,4.9700785E-2,1.0702709E-1,-2.5162905E-2,2.6039261E-2,1.8882765E-2,1.8128203E-1,-4.96543E-2,2.1797994E-2,-1.7483442E-3,8.301737E-2,1.00382224E-1,5.8577925E-2],"categories":[],"categories_nodes":[],"categories_segments":[],"categories_sizes":[],"default_left":[0,0,0,0,0,0,0,0,0,0,0,0,0,0,0,0,0,0,0,0,0,0,0,0,0,0,0,0,0,0,0,0,0,0,0,0,0,0,0,0,0,0,0,0,0,0,0,0,0,0,0,0,0],"id":14,"left_children":[1,3,5,7,9,11,13,15,17,19,21,23,-1,25,27,29,31,33,35,37,39,41,43,-1,-1,45,47,49,51,-1,-1,-1,-1,-1,-1,-1,-1,-1,-1,-1,-1,-1,-1,-1,-1,-1,-1,-1,-1,-1,-1,-1,-1],"loss_changes":[3.9241077E3,1.0025696E3,1.6652828E3,7.4701685E2,4.6341034E2,3.8510742E0,1.3888015E3,1.4154932E2,2.9586728E2,9.7830124E1,1.154426E2,1.8028564E0,0E0,8.5865826E2,2.4103613E2,1.4644775E1,1.21944824E2,1.648751E2,1.5127643E2,1.2501556E1,1.1086473E2,5.1400116E1,3.2516045E1,0E0,0E0,5.0223923E2,1.466239E2,8.875892E1,7.333154E1,0E0,0E0,0E0,0E0,0E0,0E0,0E0,0E0,0E0,0E0,0E0,0E0,0E0,0E0,0E0,0E0,0E0,0E0,0E0,0E0,0E0,0E0,0E0,0E0],"parents":[2147483647,0,0,1,1,2,2,3,3,4,4,5,5,6,6,7,7,8,8,9,9,10,10,11,11,13,13,14,14,15,15,16,16,17,17,18,18,19,19,20,20,21,21,22,22,25,25,26,26,27,27,28,28],"right_children":[2,4,6,8,10,12,14,16,18,20,22,24,-1,26,28,30,32,34,36,38,40,42,44,-1,-1,46,48,50,52,-1,-1,-1,-1,-1,-1,-1,-1,-1,-1,-1,-1,-1,-1,-1,-1,-1,-1,-1,-1,-1,-1,-1,-1],"split_conditions":[-9.1865295E-1,4.128056E-1,1.1199328E0,3.500512E-1,-5.343161E-1,-4.6391377E-1,4.9639964E-1,-8.4317917E-1,-3.501432E-1,-1.3280222E0,9.514205E-1,-2.1130842E-1,1.2498643E-1,9.514205E-1,-5.343161E-1,-4.835586E-1,-4.2641363E-1,6.4713275E-1,2.99104E0,2.0377474E0,4.7244927E-1,-3.501432E-1,4.5852684E-3,1.4610897E-1,1.3192634E-1,4.84102E-1,-3.501432E-1,-4.835586E-1,9.514205E-1,-9.666726E-2,-5.5455666E-2,-8.356655E-2,-4.8161592E-2,1.9174288E-1,-3.2167386E-2,1.720026E-1,2.8219897E-2,-9.2400506E-2,-4.0320642E-2,2.5876269E-2,-5.4294266E-2,4.9700785E-2,1.0702709E-1,-2.5162905E-2,2.6039261E-2,1.8882765E-2,1.8128203E-1,-4.96543E-2,2.1797994E-2,-1.7483442E-3,8.301737E-2,1.00382224E-1,5.8577925E-2],"split_indices":[3,2,3,5,5,4,2,5,8,5,7,2,0,7,5,4,2,5,8,2,7,8,5,0,0,7,8,4,7,0,0,0,0,0,0,0,0,0,0,0,0,0,0,0,0,0,0,0,0,0,0,0,0],"split_type":[0,0,0,0,0,0,0,0,0,0,0,0,0,0,0,0,0,0,0,0,0,0,0,0,0,0,0,0,0,0,0,0,0,0,0,0,0,0,0,0,0,0,0,0,0,0,0,0,0,0,0,0,0],"sum_hessian":[2.6780326E4,1.2497728E4,1.4282599E4,9.66464E3,2.8330876E3,1.6108374E3,1.2671762E4,6.4165703E3,3.2480698E3,1.0568279E3,1.7762596E3,8.2594824E2,7.8488916E2,9.394143E3,3.2776194E3,2.493566E3,3.9230042E3,2.8108018E3,4.372679E2,3.5523325E2,7.0159467E2,1.2818427E3,4.9441702E2,2.7049747E2,5.5545074E2,6.5000938E3,2.8940488E3,6.0699475E2,2.6706248E3,2.3993823E3,9.418359E1,1.8200955E3,2.1029087E3,3.2297256E1,2.7785046E3,9.2053276E1,3.4521463E2,2.9806656E2,5.7166695E1,3.0226266E2,3.99332E2,1.0991246E3,1.8271797E2,2.4108794E2,2.533291E2,6.3047075E3,1.9538617E2,2.5713318E3,3.2271692E2,4.35587E2,1.7140773E2,2.1423337E3,5.2829083E2],"tree_param":{"num_deleted":"0","num_feature":"11","num_nodes":"53","size_leaf_vector":"1"}},{"base_weights":[-3.5268029E-3,-4.676889E-1,3.5326833E-1,-7.2792387E-1,-1.0893771E-1,-1.0049123E-1,5.7054454E-1,-9.430971E-1,-6.013418E-1,1.2204839E-1,-1.6042191E-1,-6.6871744E-1,3.306161E-2,3.4465477E-1,8.22115E-1,-1.0084417E0,-7.4522513E-1,2.2625354E-1,-6.2083524E-1,-6.396491E-1,-3.0674044E-2,-8.104535E-1,-2.7136314E-1,-2.2938184E-1,3.1271473E-1,1.3762097E0,2.2730796E-1,1.2965475E0,7.157064E-1,-1.0353775E-1,-9.0113975E-2,1.2475561E-1,-7.5486004E-2,-8.7341994E-2,-4.6107255E-2,-5.0127365E-2,-8.820969E-2,-5.503496E-2,1.0583266E-2,1.2678364E-1,-8.475374E-2,2.362598E-1,-5.0510675E-2,1.4312689E-1,-2.7540598E-2,1.3196431E-2,7.11751E-2,1.2206222E-1,1.4138512E-1,1.2767147E-1,1.4333742E-2,1.4693731E-1,1.2462827E-1,1.7298386E-2,8.2859725E-2],"categories":[],"categories_nodes":[],"categories_segments":[],"categories_sizes":[],"default_left":[0,0,0,0,0,0,0,0,0,0,0,0,0,0,0,0,0,0,0,0,0,0,0,0,0,0,0,0,0,0,0,0,0,0,0,0,0,0,0,0,0,0,0,0,0,0,0,0,0,0,0,0,0,0,0],"id":15,"left_children":[1,3,5,7,9,11,13,15,17,-1,19,21,23,25,27,29,31,-1,33,35,37,39,41,43,45,47,49,51,53,-1,-1,-1,-1,-1,-1,-1,-1,-1,-1,-1,-1,-1,-1,-1,-1,-1,-1,-1,-1,-1,-1,-1,-1,-1,-1],"loss_changes":[4.327856E3,1.0602515E3,1.456762E3,1.7871802E2,3.2709268E2,3.6314328E2,5.674917E2,3.0749023E1,2.3292505E2,0E0,2.8593555E2,5.1067505E1,2.8449182E2,6.371404E2,2.376687E2,4.352417E0,1.2627899E1,0E0,1.6584851E2,3.242874E1,2.568674E2,5.27677E1,1.4952666E2,1.5323422E2,1.3525461E2,1.4231567E0,4.1656647E2,5.6795654E0,2.3651306E2,0E0,0E0,0E0,0E0,0E0,0E0,0E0,0E0,0E0,0E0,0E0,0E0,0E0,0E0,0E0,0E0,0E0,0E0,0E0,0E0,0E0,0E0,0E0,0E0,0E0,0E0],"parents":[2147483647,0,0,1,1,2,2,3,3,4,4,5,5,6,6,7,7,8,8,10,10,11,11,12,12,13,13,14,14,15,15,16,16,18,18,19,19,20,20,21,21,22,22,23,23,24,24,25,25,26,26,27,27,28,28],"right_children":[2,4,6,8,10,12,14,16,18,-1,20,22,24,26,28,30,32,-1,34,36,38,40,42,44,46,48,50,52,54,-1,-1,-1,-1,-1,-1,-1,-1,-1,-1,-1,-1,-1,-1,-1,-1,-1,-1,-1,-1,-1,-1,-1,-1,-1,-1],"split_conditions":[-4.1836113E-1,-9.304262E-1,-9.304262E-1,-1.0211117E0,1.0981215E0,-1.0121901E0,4.0205184E-1,3.500512E-1,-5.153807E-1,1.2204839E-1,-6.1039394E-1,4.0205184E-1,-2.1130842E-1,3.9053658E-1,1.2964538E0,-9.1865295E-1,6.330031E-1,2.2625354E-1,-5.343161E-1,9.514205E-1,-3.146336E-1,3.9053658E-1,1.2964538E0,3.9053658E-1,4.0205184E-1,1.0981215E0,1.0981215E0,-2.8787795E-1,-6.1039394E-1,-1.0353775E-1,-9.0113975E-2,1.2475561E-1,-7.5486004E-2,-8.7341994E-2,-4.6107255E-2,-5.0127365E-2,-8.820969E-2,-5.503496E-2,1.0583266E-2,1.2678364E-1,-8.475374E-2,2.362598E-1,-5.0510675E-2,1.4312689E-1,-2.7540598E-2,1.3196431E-2,7.11751E-2,1.2206222E-1,1.4138512E-1,1.2767147E-1,1.4333742E-2,1.4693731E-1,1.2462827E-1,1.7298386E-2,8.2859725E-2],"split_indices":[0,1,1,0,1,5,0,5,0,0,2,0,2,0,0,3,5,0,5,7,5,0,0,0,0,1,1,2,2,0,0,0,0,0,0,0,0,0,0,0,0,0,0,0,0,0,0,0,0,0,0,0,0,0,0],"split_type":[0,0,0,0,0,0,0,0,0,0,0,0,0,0,0,0,0,0,0,0,0,0,0,0,0,0,0,0,0,0,0,0,0,0,0,0,0,0,0,0,0,0,0,0,0,0,0,0,0,0,0,0,0,0,0],"sum_hessian":[2.61307E4,1.1356493E4,1.4774205E4,6.5813853E3,4.775108E3,4.7839478E3,9.990258E3,2.4352769E3,4.1461084E3,1.7718341E2,4.5979243E3,9.096519E2,3.8742957E3,5.2650464E3,4.7252114E3,1.8276306E3,6.076464E2,2.7252518E1,4.118856E3,9.7879376E2,3.6191306E3,6.697226E2,2.399293E2,1.9987383E3,1.8755575E3,5.3666693E2,4.7283794E3,8.6359784E2,3.8616135E3,1.4539882E3,3.736424E2,2.3055513E0,6.053408E2,1.594107E3,2.5247485E3,6.250934E2,3.5370035E2,7.522632E2,2.8668674E3,1.1158844E1,6.585638E2,1.881403E1,2.2111528E2,5.30886E1,1.9456497E3,1.2917621E3,5.837954E2,1.1105578E2,4.256111E2,3.4926752E2,4.379112E3,1.8821751E2,6.753803E2,6.65372E2,3.1962415E3],"tree_param":{"num_deleted":"0","num_feature":"11","num_nodes":"55","size_leaf_vector":"1"}},{"base_weights":[-2.019386E-3,-4.3665406E-1,3.266405E-1,-6.96929E-1,-9.092627E-2,-5.033155E-2,5.5797786E-1,-8.276503E-1,-4.8639643E-1,-5.69898E-1,4.4827733E-2,-3.341509E-1,2.5244263E-1,1.2092131E0,4.6072298E-1,-8.992758E-1,-5.973132E-1,2.4394529E-1,-5.033517E-1,-6.52783E-1,4.0862876E-1,1.8005192E0,5.3672766E-4,1.4584206E-1,-3.7872413E-1,1.4001869E-1,2.0251237E-1,1.2988408E-1,1.1940111E-1,2.515858E-1,7.20965E-1,-1.01712726E-1,-8.224415E-2,1.8294095E-1,-6.945766E-2,-7.921656E-2,-3.4496948E-2,1.1618977E-1,-6.909975E-2,1.546869E-1,1.3704389E-2,1.07468925E-1,1.9157107E-1,1.1944026E-1,-4.306413E-3,-5.460868E-2,7.0960395E-4,-8.143402E-4,5.6519896E-2,1.3689357E-1,1.512017E-2,1.320793E-1,6.1211754E-2],"categories":[],"categories_nodes":[],"categories_segments":[],"categories_sizes":[],"default_left":[0,0,0,0,0,0,0,0,0,0,0,0,0,0,0,0,0,0,0,0,0,0,0,0,0,0,0,0,0,0,0,0,0,0,0,0,0,0,0,0,0,0,0,0,0,0,0,0,0,0,0,0,0],"id":16,"left_children":[1,3,5,7,9,11,13,15,17,19,21,23,25,27,29,31,33,-1,35,37,39,41,43,-1,45,-1,47,-1,-1,49,51,-1,-1,-1,-1,-1,-1,-1,-1,-1,-1,-1,-1,-1,-1,-1,-1,-1,-1,-1,-1,-1,-1],"loss_changes":[3.6233757E3,9.8273267E2,1.2596189E3,1.710769E2,3.0511246E2,4.7217926E2,5.663511E2,6.2858154E1,1.1975342E2,8.4311615E1,2.8435565E2,2.2715567E2,1.520779E2,3.2836914E-2,4.2376807E2,2.5687012E1,2.1710797E2,0E0,1.0842493E2,6.7078674E1,2.4992765E1,5.464386E0,1.857685E2,0E0,1.78742E2,0E0,1.9475421E2,0E0,0E0,4.8437518E2,2.2575525E2,0E0,0E0,0E0,0E0,0E0,0E0,0E0,0E0,0E0,0E0,0E0,0E0,0E0,0E0,0E0,0E0,0E0,0E0,0E0,0E0,0E0,0E0],"parents":[2147483647,0,0,1,1,2,2,3,3,4,4,5,5,6,6,7,7,8,8,9,9,10,10,11,11,12,12,13,13,14,14,15,15,16,16,18,18,19,19,20,20,21,21,22,22,24,24,26,26,29,29,30,30],"right_children":[2,4,6,8,10,12,14,16,18,20,22,24,26,28,30,32,34,-1,36,38,40,42,44,-1,46,-1,48,-1,-1,50,52,-1,-1,-1,-1,-1,-1,-1,-1,-1,-1,-1,-1,-1,-1,-1,-1,-1,-1,-1,-1,-1,-1],"split_conditions":[-4.1836113E-1,-9.304262E-1,-9.1865295E-1,4.5852684E-3,-1.0211117E0,4.5852684E-3,1.1199328E0,-9.1865295E-1,3.1794024E-1,-4.835586E-1,-5.153807E-1,3.9053658E-1,3.9053658E-1,-9.304262E-1,4.0205184E-1,-1.0211117E0,1.0806923E0,2.4394529E-1,-1.0211117E0,1.0981215E0,2.1349108E0,1.0718518E0,1.0981215E0,1.4584206E-1,4.0205184E-1,1.4001869E-1,4.0205184E-1,1.2988408E-1,1.1940111E-1,3.9053658E-1,1.2964538E0,-1.01712726E-1,-8.224415E-2,1.8294095E-1,-6.945766E-2,-7.921656E-2,-3.4496948E-2,1.1618977E-1,-6.909975E-2,1.546869E-1,1.3704389E-2,1.07468925E-1,1.9157107E-1,1.1944026E-1,-4.306413E-3,-5.460868E-2,7.0960395E-4,-8.143402E-4,5.6519896E-2,1.3689357E-1,1.512017E-2,1.320793E-1,6.1211754E-2],"split_indices":[0,1,3,5,0,5,3,3,5,4,0,0,0,1,0,0,3,0,0,1,4,1,1,0,0,0,0,0,0,0,0,0,0,0,0,0,0,0,0,0,0,0,0,0,0,0,0,0,0,0,0,0,0],"split_type":[0,0,0,0,0,0,0,0,0,0,0,0,0,0,0,0,0,0,0,0,0,0,0,0,0,0,0,0,0,0,0,0,0,0,0,0,0,0,0,0,0,0,0,0,0,0,0,0,0,0,0,0,0],"sum_hessian":[2.5363438E4,1.0920864E4,1.4442573E4,6.229832E3,4.691032E3,5.492744E3,8.949829E3,3.8416125E3,2.3882192E3,1.0352457E3,3.6557864E3,2.835063E3,2.657681E3,1.1614081E3,7.7884214E3,2.928168E3,9.134447E2,1.2936753E1,2.3752827E3,9.54711E2,8.05348E1,8.897988E1,3.5668066E3,6.801535E1,2.7670479E3,1.0966958E2,2.5480115E3,1.5617905E2,1.00522906E3,4.3192935E3,3.4691277E3,1.1507943E3,1.7773737E3,3.4513863E1,8.7893085E2,8.398299E2,1.5354528E3,1.9083702E1,9.3562726E2,1.4609435E1,6.592536E1,1.3602027E1,7.537785E1,1.2474275E2,3.4420637E3,1.9296018E3,8.374459E2,1.6124469E3,9.355645E2,3.5501993E2,3.9642734E3,5.311231E2,2.9380046E3],"tree_param":{"num_deleted":"0","num_feature":"11","num_nodes":"53","size_leaf_vector":"1"}},{"base_weights":[-2.147819E-3,-4.1453767E-1,3.0669504E-1,-5.7148576E-1,-1.3587882E-1,1.2759289E-1,7.0872456E-1,-6.553413E-1,-9.5029145E-2,1.4174347E-1,-2.3518988E-1,1.2068414E-1,6.021238E-2,1.2823017E0,5.1920444E-1,-6.766446E-1,2.0940268E-1,2.5726757E0,-1.3824226E-1,-5.1300533E-2,-4.554172E-1,-5.077156E-1,1.5725262E-1,1.4369044E0,1.2497922E0,3.3315074E-1,8.362573E-1,-8.31252E-2,-5.7452913E-2,2.583438E-1,-9.320722E-3,2.9090115E-1,1.4993218E-1,-2.354248E-2,5.183043E-2,-1.2656202E-2,2.6144114E-1,-6.109176E-2,-2.9381488E-2,-1.0157957E-1,-3.538407E-2,-1.2660505E-2,3.0960158E-2,1.1888448E-1,1.5163271E-1,1.1589958E-1,1.2706718E-1,4.1187488E-2,-3.3970915E-2,1.22019984E-1,6.377348E-2],"categories":[],"categories_nodes":[],"categories_segments":[],"categories_sizes":[],"default_left":[0,0,0,0,0,0,0,0,0,0,0,0,0,0,0,0,0,0,0,0,0,0,0,0,0,0,0,0,0,0,0,0,0,0,0,0,0,0,0,0,0,0,0,0,0,0,0,0,0,0,0],"id":17,"left_children":[1,3,5,7,9,11,13,15,17,-1,19,-1,21,23,25,27,29,31,33,35,37,39,41,43,45,47,49,-1,-1,-1,-1,-1,-1,-1,-1,-1,-1,-1,-1,-1,-1,-1,-1,-1,-1,-1,-1,-1,-1,-1,-1],"loss_changes":[3.145911E3,4.6250757E2,1.0168425E3,2.702566E2,5.8840515E2,7.1053E2,4.72469E2,1.0612451E2,1.17218834E2,0E0,1.4511772E2,0E0,5.070291E2,3.633789E0,1.9280396E2,8.817139E1,1.0016073E2,1.490509E0,6.383275E1,3.9240063E2,4.0799133E1,1.0460611E2,3.3981622E2,1.7635498E0,2.3400879E-1,1.094919E2,9.1434204E1,0E0,0E0,0E0,0E0,0E0,0E0,0E0,0E0,0E0,0E0,0E0,0E0,0E0,0E0,0E0,0E0,0E0,0E0,0E0,0E0,0E0,0E0,0E0,0E0],"parents":[2147483647,0,0,1,1,2,2,3,3,4,4,5,5,6,6,7,7,8,8,10,10,12,12,13,13,14,14,15,15,16,16,17,17,18,18,19,19,20,20,21,21,22,22,23,23,24,24,25,25,26,26],"right_children":[2,4,6,8,10,12,14,16,18,-1,20,-1,22,24,26,28,30,32,34,36,38,40,42,44,46,48,50,-1,-1,-1,-1,-1,-1,-1,-1,-1,-1,-1,-1,-1,-1,-1,-1,-1,-1,-1,-1,-1,-1,-1,-1],"split_conditions":[-9.304262E-1,-9.1865295E-1,-4.835586E-1,6.790295E-1,1.1199328E0,1.0981215E0,2.1349108E0,-3.501432E-1,9.763252E-1,1.4174347E-1,9.7827494E-1,1.2068414E-1,-5.343161E-1,-9.1865295E-1,-3.501432E-1,-8.4317917E-1,2.9518392E0,-2.5712985E-1,-3.501432E-1,2.8413918E-2,4.5852684E-3,-1.3280222E0,-9.1865295E-1,1.0981215E0,1.0981215E0,9.514205E-1,2.99104E0,-8.31252E-2,-5.7452913E-2,2.583438E-1,-9.320722E-3,2.9090115E-1,1.4993218E-1,-2.354248E-2,5.183043E-2,-1.2656202E-2,2.6144114E-1,-6.109176E-2,-2.9381488E-2,-1.0157957E-1,-3.538407E-2,-1.2660505E-2,3.0960158E-2,1.1888448E-1,1.5163271E-1,1.1589958E-1,1.2706718E-1,4.1187488E-2,-3.3970915E-2,1.22019984E-1,6.377348E-2],"split_indices":[1,3,4,5,3,1,4,8,5,0,9,0,5,3,8,5,8,6,8,9,5,5,3,1,1,7,8,0,0,0,0,0,0,0,0,0,0,0,0,0,0,0,0,0,0,0,0,0,0,0,0],"split_type":[0,0,0,0,0,0,0,0,0,0,0,0,0,0,0,0,0,0,0,0,0,0,0,0,0,0,0,0,0,0,0,0,0,0,0,0,0,0,0,0,0,0,0,0,0,0,0,0,0,0,0],"sum_hessian":[2.4698225E4,1.0576011E4,1.4122214E4,6.764829E3,3.811182E3,9.770723E3,4.351491E3,5.752094E3,1.01273486E3,2.2822757E2,3.5829543E3,5.7317303E2,9.19755E3,1.079289E3,3.2722024E3,5.614009E3,1.380855E2,1.5210334E1,9.9752454E2,1.9532377E3,1.6297166E3,1.3416006E3,7.855949E3,1.8001317E2,8.9927576E2,2.0634023E3,1.2088E3,2.2302183E3,3.3837903E3,1.4759226E1,1.2332627E2,1.027915E1,4.9311833E0,8.694668E2,1.2805775E2,1.9005322E3,5.270552E1,8.291216E2,8.00595E2,3.1055994E2,1.0310408E3,2.7438174E3,5.112132E3,4.7530457E1,1.3248271E2,1.7869858E2,7.205772E2,1.8476201E3,2.1578232E2,4.1024313E2,7.9855695E2],"tree_param":{"num_deleted":"0","num_feature":"11","num_nodes":"51","size_leaf_vector":"1"}},{"base_weights":[-2.7753725E-3,-4.0056637E-1,2.9480258E-1,-6.431789E-1,-1.0135159E-1,-1.85632E-2,5.085263E-1,-8.76878E-1,-5.152514E-1,-5.411713E-1,2.0573368E-2,-3.8048193E-1,1.8233313E-1,9.2724524E-2,7.059491E-1,-9.559612E-1,-6.582462E-1,2.2037004E-1,-5.353307E-1,-6.145898E-1,3.1814304E-1,1.6689875E0,-1.9992907E-2,1.348045E-1,-4.2186725E-1,-1.6355245E-1,3.68451E-1,-1.6039744E-1,5.0047064E-1,5.4690635E-1,9.127319E-1,-9.932669E-2,-8.1195794E-2,-7.156306E-2,-2.2634363E-2,-7.997661E-2,-3.8242757E-2,1.1133402E-1,-6.501857E-2,1.4092721E-1,7.2022825E-3,1.0306501E-1,1.7495205E-1,-6.2084217E-2,6.9325566E-3,-6.478278E-2,-2.2313823E-3,1.5621671E-1,-2.0595986E-2,5.8484674E-2,1.415052E-2,1.3300899E-1,-2.4810418E-2,1.4502981E-1,3.359617E-2,1.2620579E-1,4.743682E-2,1.1928995E-1,8.515798E-2],"categories":[],"categories_nodes":[],"categories_segments":[],"categories_sizes":[],"default_left":[0,0,0,0,0,0,0,0,0,0,0,0,0,0,0,0,0,0,0,0,0,0,0,0,0,0,0,0,0,0,0,0,0,0,0,0,0,0,0,0,0,0,0,0,0,0,0,0,0,0,0,0,0,0,0,0,0,0,0],"id":18,"left_children":[1,3,5,7,9,11,13,15,17,19,21,23,25,27,29,31,33,-1,35,37,39,41,43,-1,45,47,49,51,53,55,57,-1,-1,-1,-1,-1,-1,-1,-1,-1,-1,-1,-1,-1,-1,-1,-1,-1,-1,-1,-1,-1,-1,-1,-1,-1,-1,-1,-1],"loss_changes":[2.8524668E3,7.4852905E2,9.2323755E2,1.6979492E2,2.4768571E2,4.0654178E2,6.726904E2,3.4176514E1,2.0222418E2,6.344275E1,2.4191174E2,1.4334207E2,2.3153067E2,2.7251385E2,1.8225073E2,7.123291E0,1.3170685E1,0E0,1.4752905E2,5.7552063E1,2.1266647E1,2.663559E0,1.8955457E2,0E0,1.7603168E2,9.243024E1,1.1473813E2,2.1332982E2,1.5752637E2,1.6247296E2,4.0348633E1,0E0,0E0,0E0,0E0,0E0,0E0,0E0,0E0,0E0,0E0,0E0,0E0,0E0,0E0,0E0,0E0,0E0,0E0,0E0,0E0,0E0,0E0,0E0,0E0,0E0,0E0,0E0,0E0],"parents":[2147483647,0,0,1,1,2,2,3,3,4,4,5,5,6,6,7,7,8,8,9,9,10,10,11,11,12,12,13,13,14,14,15,15,16,16,18,18,19,19,20,20,21,21,22,22,24,24,25,25,26,26,27,27,28,28,29,29,30,30],"right_children":[2,4,6,8,10,12,14,16,18,20,22,24,26,28,30,32,34,-1,36,38,40,42,44,-1,46,48,50,52,54,56,58,-1,-1,-1,-1,-1,-1,-1,-1,-1,-1,-1,-1,-1,-1,-1,-1,-1,-1,-1,-1,-1,-1,-1,-1,-1,-1,-1,-1],"split_conditions":[-4.1836113E-1,-9.304262E-1,-2.1130842E-1,-1.0211117E0,-1.0211117E0,4.5852684E-3,-3.146336E-1,3.500512E-1,-5.153807E-1,-4.835586E-1,-5.153807E-1,3.9053658E-1,-7.340384E-1,4.0205184E-1,4.0205184E-1,-2.0501561E-2,1.3225443E0,2.2037004E-1,-5.343161E-1,1.0981215E0,2.1349108E0,1.0718518E0,-7.340384E-1,1.348045E-1,4.0205184E-1,3.1794024E-1,-6.521906E-3,3.9053658E-1,1.2964538E0,3.9053658E-1,1.2964538E0,-9.932669E-2,-8.1195794E-2,-7.156306E-2,-2.2634363E-2,-7.997661E-2,-3.8242757E-2,1.1133402E-1,-6.501857E-2,1.4092721E-1,7.2022825E-3,1.0306501E-1,1.7495205E-1,-6.2084217E-2,6.9325566E-3,-6.478278E-2,-2.2313823E-3,1.5621671E-1,-2.0595986E-2,5.8484674E-2,1.415052E-2,1.3300899E-1,-2.4810418E-2,1.4502981E-1,3.359617E-2,1.2620579E-1,4.743682E-2,1.1928995E-1,8.515798E-2],"split_indices":[0,1,2,0,0,5,5,5,0,4,0,0,2,0,0,2,5,0,5,1,4,1,2,0,0,5,7,0,0,0,0,0,0,0,0,0,0,0,0,0,0,0,0,0,0,0,0,0,0,0,0,0,0,0,0,0,0,0,0],"split_type":[0,0,0,0,0,0,0,0,0,0,0,0,0,0,0,0,0,0,0,0,0,0,0,0,0,0,0,0,0,0,0,0,0,0,0,0,0,0,0,0,0,0,0,0,0,0,0,0,0,0,0,0,0,0,0,0,0,0,0],"sum_hessian":[2.4095107E4,1.0311173E4,1.3783934E4,5.6935327E3,4.61764E3,5.589466E3,8.194468E3,2.012049E3,3.681484E3,1.00149835E3,3.6161418E3,1.9948357E3,3.5946301E3,2.6386172E3,5.5558506E3,1.4751039E3,5.36945E2,2.6191097E1,3.6552927E3,9.229294E2,7.8568924E1,8.5889084E1,3.5302527E3,4.5906364E1,1.9489293E3,1.2575999E3,2.3370303E3,1.6283633E3,1.010254E3,3.1425024E3,2.413348E3,1.166906E3,3.0819794E2,4.733914E2,6.3553642E1,1.3376647E3,2.317628E3,1.8017712E1,9.049117E2,1.3590771E1,6.497816E1,1.11676235E1,7.472146E1,4.5609967E2,3.074153E3,1.2445015E3,7.0442786E2,2.9303215E1,1.2282966E3,1.1955146E3,1.1415156E3,8.970764E1,1.5386556E3,1.4798947E2,8.622645E2,2.8788232E2,2.85462E3,4.2906827E2,1.9842798E3],"tree_param":{"num_deleted":"0","num_feature":"11","num_nodes":"59","size_leaf_vector":"1"}},{"base_weights":[-7.0936168E-3,-2.1082793E-1,4.0788817E-1,-3.1974378E-1,4.8751783E-1,1.3036699E-2,6.2648803E-1,-6.5362805E-1,-1.5677892E-1,1.4472841E0,1.338959E-1,4.972462E-1,-1.6897975E-1,7.3560435E-1,2.6053423E-1,-7.647495E-1,-4.2474598E-1,1.9975845E0,-1.784984E-1,1.6023248E0,1.2799904E-1,-3.2654232E-1,2.73765E-1,-2.949781E-1,7.105522E-1,-5.843153E-1,1.0671247E-2,4.761245E-1,8.5475016E-1,6.915228E-2,5.8123636E-1,-8.678912E-2,-6.2357392E-2,1.352427E-1,-5.4096766E-2,3.0249825E-1,1.6298845E-1,1.081464E-2,-3.348877E-2,1.6953619E-1,1.429935E-1,-4.410221E-3,-5.6151945E-2,6.1229557E-2,8.9508025E-3,-4.812593E-2,4.365915E-2,4.9889952E-2,9.907433E-2,-1.00886755E-1,-4.4373047E-2,-3.0503362E-2,3.4367856E-2,4.3572854E-2,1.6117519E-1,7.12834E-2,9.926515E-2,1.6642082E-1,2.071354E-3,6.1533898E-2,-8.651715E-2],"categories":[],"categories_nodes":[],"categories_segments":[],"categories_sizes":[],"default_left":[0,0,0,0,0,0,0,0,0,0,0,0,0,0,0,0,0,0,0,0,0,0,0,0,0,0,0,0,0,0,0,0,0,0,0,0,0,0,0,0,0,0,0,0,0,0,0,0,0,0,0,0,0,0,0,0,0,0,0,0,0],"id":19,"left_children":[1,3,5,7,9,11,13,15,17,19,21,23,25,27,29,31,33,35,37,39,-1,41,43,45,47,49,51,53,55,57,59,-1,-1,-1,-1,-1,-1,-1,-1,-1,-1,-1,-1,-1,-1,-1,-1,-1,-1,-1,-1,-1,-1,-1,-1,-1,-1,-1,-1,-1,-1],"loss_changes":[1.9860011E3,1.1985093E3,6.6763306E2,7.4153E2,7.213884E2,2.4309958E2,1.9861328E2,1.13371704E2,4.2900482E2,1.2793823E1,1.0021716E2,1.2755307E2,1.4959273E2,1.1814258E2,7.02401E1,4.3259277E1,3.029611E2,2.9641937E1,4.0663968E2,2.2763062E0,0E0,2.4046997E1,7.436336E1,2.209143E1,3.473233E1,3.5682373E1,1.4733446E2,5.4756653E1,5.0697266E1,5.5459644E1,2.1634796E1,0E0,0E0,0E0,0E0,0E0,0E0,0E0,0E0,0E0,0E0,0E0,0E0,0E0,0E0,0E0,0E0,0E0,0E0,0E0,0E0,0E0,0E0,0E0,0E0,0E0,0E0,0E0,0E0,0E0,0E0],"parents":[2147483647,0,0,1,1,2,2,3,3,4,4,5,5,6,6,7,7,8,8,9,9,10,10,11,11,12,12,13,13,14,14,15,15,16,16,17,17,18,18,19,19,21,21,22,22,23,23,24,24,25,25,26,26,27,27,28,28,29,29,30,30],"right_children":[2,4,6,8,10,12,14,16,18,20,22,24,26,28,30,32,34,36,38,40,-1,42,44,46,48,50,52,54,56,58,60,-1,-1,-1,-1,-1,-1,-1,-1,-1,-1,-1,-1,-1,-1,-1,-1,-1,-1,-1,-1,-1,-1,-1,-1,-1,-1,-1,-1,-1,-1],"split_conditions":[1.8910274E-1,-3.501432E-1,-3.146336E-1,-3.146336E-1,2.99104E0,-4.854931E-1,9.514205E-1,-9.1865295E-1,-1.125225E-2,-4.2054164E-1,-7.340384E-1,-1.3280222E0,-1.0121901E0,-9.1865295E-1,7.871432E-1,-8.4317917E-1,1.1199328E0,-9.1865295E-1,-6.521906E-3,-3.4244812E-1,1.2799904E-1,-4.2978864E-2,5.853308E-1,2.0377474E0,1.2416452E0,-1.6572146E0,7.871432E-1,4.84102E-1,7.871432E-1,3.3297744E-1,4.395427E0,-8.678912E-2,-6.2357392E-2,1.352427E-1,-5.4096766E-2,3.0249825E-1,1.6298845E-1,1.081464E-2,-3.348877E-2,1.6953619E-1,1.429935E-1,-4.410221E-3,-5.6151945E-2,6.1229557E-2,8.9508025E-3,-4.812593E-2,4.365915E-2,4.9889952E-2,9.907433E-2,-1.00886755E-1,-4.4373047E-2,-3.0503362E-2,3.4367856E-2,4.3572854E-2,1.6117519E-1,7.12834E-2,9.926515E-2,1.6642082E-1,2.071354E-3,6.1533898E-2,-8.651715E-2],"split_indices":[2,8,5,5,8,7,7,3,5,4,2,5,5,3,2,5,3,3,7,6,0,9,10,2,2,5,2,7,2,2,2,0,0,0,0,0,0,0,0,0,0,0,0,0,0,0,0,0,0,0,0,0,0,0,0,0,0,0,0,0,0],"split_type":[0,0,0,0,0,0,0,0,0,0,0,0,0,0,0,0,0,0,0,0,0,0,0,0,0,0,0,0,0,0,0,0,0,0,0,0,0,0,0,0,0,0,0,0,0,0,0,0,0,0,0,0,0,0,0,0,0,0,0,0,0],"sum_hessian":[2.3488162E4,1.5754178E4,7.733984E3,1.3629091E4,2.1250872E3,2.7563386E3,4.977645E3,4.469309E3,9.159781E3,5.713343E2,1.5537528E3,7.525731E2,2.0037655E3,3.8335784E3,1.1440667E3,3.0070537E3,1.4622552E3,9.051581E1,9.069266E3,2.9207443E2,2.7925986E2,3.61707E2,1.1920459E3,1.5956425E2,5.9300885E2,6.0433936E2,1.3994261E3,1.207921E3,2.6256575E3,7.172543E2,4.268124E2,1.7346127E3,1.2724409E3,8.910423E1,1.373151E3,2.1952135E1,6.8563675E1,3.201524E3,5.8677417E3,1.8395926E2,1.08115166E2,1.6480305E2,1.9690393E2,4.1931897E2,7.727269E2,1.2745282E2,3.211143E1,3.3940628E2,2.536026E2,1.4880052E2,4.5553885E2,7.184189E2,6.8100726E2,1.1677656E3,4.0155453E1,1.2970331E3,1.3286244E3,2.0156517E1,6.970978E2,4.175424E2,9.2700205E0],"tree_param":{"num_deleted":"0","num_feature":"11","num_nodes":"61","size_leaf_vector":"1"}},{"base_weights":[-1.9473726E-3,-3.4901738E-1,2.4956425E-1,-5.3641164E-1,-8.887456E-2,1.1651548E-1,1.8255967E-1,-6.369858E-1,-1.514794E-1,-5.698735E-1,2.4354832E-2,2.5539916E-2,5.912928E-1,-7.5805235E-1,-3.868765E-1,2.7885466E0,-2.1088596E-1,-6.4720744E-1,-1.494822E-1,-3.6507204E-2,7.4437433E-1,-9.468831E-2,5.0818765E-1,2.3704763E-1,7.5913626E-1,-5.8774125E-2,-8.072114E-2,1.3823757E-1,-4.7595337E-2,3.1037256E-1,1.5923028E-1,1.0460884E-2,-3.680307E-2,2.0764641E-1,-6.60683E-2,-3.634794E-2,9.407808E-2,-1.4762863E-2,3.5696775E-2,1.696878E-1,5.2449346E-2,1.0521693E-2,-3.167533E-2,1.3505541E-1,1.9825825E-2,-5.201572E-3,5.5714753E-2,6.56369E-2,1.0339675E-1],"categories":[],"categories_nodes":[],"categories_segments":[],"categories_sizes":[],"default_left":[0,0,0,0,0,0,0,0,0,0,0,0,0,0,0,0,0,0,0,0,0,0,0,0,0,0,0,0,0,0,0,0,0,0,0,0,0,0,0,0,0,0,0,0,0,0,0,0,0],"id":20,"left_children":[1,3,5,7,9,-1,11,13,15,17,19,21,23,25,27,29,31,33,35,37,39,41,43,45,47,-1,-1,-1,-1,-1,-1,-1,-1,-1,-1,-1,-1,-1,-1,-1,-1,-1,-1,-1,-1,-1,-1,-1,-1],"loss_changes":[2.0103202E3,4.7168164E2,8.189868E2,2.1765564E2,2.2075525E2,0E0,7.9861597E2,1.3472888E2,2.0431932E2,2.5012482E1,1.438371E2,5.217859E2,2.0516418E2,2.467334E1,2.3019875E2,3.7949524E0,5.6770645E1,2.5303589E1,2.8643465E1,1.323981E2,5.2688797E1,3.196085E2,4.6789407E2,1.0289714E2,6.5492676E1,0E0,0E0,0E0,0E0,0E0,0E0,0E0,0E0,0E0,0E0,0E0,0E0,0E0,0E0,0E0,0E0,0E0,0E0,0E0,0E0,0E0,0E0,0E0,0E0],"parents":[2147483647,0,0,1,1,2,2,3,3,4,4,6,6,7,7,8,8,9,9,10,10,11,11,12,12,13,13,14,14,15,15,16,16,17,17,18,18,19,19,20,20,21,21,22,22,23,23,24,24],"right_children":[2,4,6,8,10,-1,12,14,16,18,20,22,24,26,28,30,32,34,36,38,40,42,44,46,48,-1,-1,-1,-1,-1,-1,-1,-1,-1,-1,-1,-1,-1,-1,-1,-1,-1,-1,-1,-1,-1,-1,-1,-1],"split_conditions":[-9.304262E-1,-2.1130842E-1,1.0981215E0,6.790295E-1,-1.0121901E0,1.1651548E-1,4.9639964E-1,-9.1865295E-1,9.763252E-1,1.4098334E0,-3.501432E-1,-3.501432E-1,-9.1865295E-1,-4.2978864E-2,1.1199328E0,-4.835586E-1,-4.2978864E-2,-1.02285035E-1,-4.835586E-1,7.871432E-1,2.9795382E0,4.7244927E-1,2.99104E0,4.5852684E-3,-3.501432E-1,-5.8774125E-2,-8.072114E-2,1.3823757E-1,-4.7595337E-2,3.1037256E-1,1.5923028E-1,1.0460884E-2,-3.680307E-2,2.0764641E-1,-6.60683E-2,-3.634794E-2,9.407808E-2,-1.4762863E-2,3.5696775E-2,1.696878E-1,5.2449346E-2,1.0521693E-2,-3.167533E-2,1.3505541E-1,1.9825825E-2,-5.201572E-3,5.5714753E-2,6.56369E-2,1.0339675E-1],"split_indices":[1,2,1,5,5,0,2,3,5,2,8,8,3,9,3,4,9,2,4,2,8,7,8,5,8,0,0,0,0,0,0,0,0,0,0,0,0,0,0,0,0,0,0,0,0,0,0,0,0],"split_type":[0,0,0,0,0,0,0,0,0,0,0,0,0,0,0,0,0,0,0,0,0,0,0,0,0,0,0,0,0,0,0,0,0,0,0,0,0,0,0,0,0,0,0,0,0,0,0,0,0],"sum_hessian":[2.3027799E4,9.675642E3,1.3352157E4,5.623606E3,4.0520354E3,9.0938525E2,1.2442771E4,4.45814E3,1.165466E3,7.713413E2,3.280694E3,8.990157E3,3.4526145E3,3.0026582E3,1.4554819E3,2.2173254E1,1.1432927E3,6.510387E2,1.20302635E2,3.0258716E3,2.5482254E2,7.1979434E3,1.792214E3,1.1107379E3,2.3418765E3,6.7546655E2,2.3271917E3,6.907092E1,1.386411E3,1.6287394E1,5.8858604E0,3.8023688E2,7.6305585E2,2.4514909E0,6.4858716E2,1.0112115E2,1.9181482E1,2.360006E3,6.658654E2,4.653218E1,2.0829036E2,3.7882483E3,3.4096948E3,4.8114307E2,1.3110709E3,5.841048E2,5.266331E2,1.7069772E3,6.3489935E2],"tree_param":{"num_deleted":"0","num_feature":"11","num_nodes":"49","size_leaf_vector":"1"}},{"base_weights":[-1.6513637E-3,-3.4701124E-1,2.535313E-1,-6.113098E-1,-1.3493142E-1,-2.552975E-2,4.3246523E-1,-7.9180694E-1,-3.968424E-1,-5.4664147E-1,3.5586268E-2,1.3526104E-1,-6.822415E-2,1.1515118E-1,3.4154537E-1,-8.721406E-1,-5.914362E-1,-6.845613E-1,-2.3918654E-1,-7.9064214E-1,-4.2427906E-1,-4.145435E-1,1.7134E-1,-2.2844265E-1,2.4591471E-1,-1.0401438E-1,4.4346687E-1,-9.694503E-2,-8.043524E-2,1.5395737E-1,-6.7608155E-2,1.9229726E-1,-6.930391E-2,2.6310816E-1,-2.5507579E-2,-4.4678118E-2,-8.624344E-2,1.9025426E-1,-4.634812E-2,-4.9663115E-2,3.9541315E-2,1.9016474E-1,1.4529242E-2,-3.225113E-2,2.214313E-2,1.682623E-1,9.442523E-3,-2.646183E-2,3.366976E-2,8.427594E-3,5.6296E-2],"categories":[],"categories_nodes":[],"categories_segments":[],"categories_sizes":[],"default_left":[0,0,0,0,0,0,0,0,0,0,0,0,0,0,0,0,0,0,0,0,0,0,0,0,0,0,0,0,0,0,0,0,0,0,0,0,0,0,0,0,0,0,0,0,0,0,0,0,0,0,0],"id":21,"left_children":[1,3,5,7,9,11,13,15,17,19,21,-1,23,-1,25,27,29,31,33,35,37,39,41,43,45,47,49,-1,-1,-1,-1,-1,-1,-1,-1,-1,-1,-1,-1,-1,-1,-1,-1,-1,-1,-1,-1,-1,-1,-1,-1],"loss_changes":[1.983809E3,5.360575E2,6.464046E2,1.6451501E2,3.7266226E2,2.9772617E2,5.152654E2,3.6684692E1,8.819318E1,4.608023E1,2.2948965E2,0E0,2.4705023E2,0E0,3.1809686E2,1.0088501E1,1.2090486E2,1.6563232E1,5.813038E1,1.2404144E1,9.5523315E1,5.805458E1,1.2975952E2,1.3762538E2,3.606992E2,9.243167E1,2.446018E2,0E0,0E0,0E0,0E0,0E0,0E0,0E0,0E0,0E0,0E0,0E0,0E0,0E0,0E0,0E0,0E0,0E0,0E0,0E0,0E0,0E0,0E0,0E0,0E0],"parents":[2147483647,0,0,1,1,2,2,3,3,4,4,5,5,6,6,7,7,8,8,9,9,10,10,12,12,14,14,15,15,16,16,17,17,18,18,19,19,20,20,21,21,22,22,23,23,24,24,25,25,26,26],"right_children":[2,4,6,8,10,12,14,16,18,20,22,-1,24,-1,26,28,30,32,34,36,38,40,42,44,46,48,50,-1,-1,-1,-1,-1,-1,-1,-1,-1,-1,-1,-1,-1,-1,-1,-1,-1,-1,-1,-1,-1,-1,-1,-1],"split_conditions":[-4.1836113E-1,4.5852684E-3,-9.1865295E-1,-2.1130842E-1,-6.1039394E-1,3.9053658E-1,1.1199328E0,-9.1865295E-1,-8.4317917E-1,-1.0211117E0,-1.0211117E0,1.3526104E-1,4.0205184E-1,1.1515118E-1,-6.1039394E-1,-1.0211117E0,1.1199328E0,-1.02285035E-1,-1.02285035E-1,-7.192059E-2,-5.153807E-1,6.824603E-1,3.1794024E-1,7.871432E-1,1.2964538E0,-3.501432E-1,-3.146336E-1,-9.694503E-2,-8.043524E-2,1.5395737E-1,-6.7608155E-2,1.9229726E-1,-6.930391E-2,2.6310816E-1,-2.5507579E-2,-4.4678118E-2,-8.624344E-2,1.9025426E-1,-4.634812E-2,-4.9663115E-2,3.9541315E-2,1.9016474E-1,1.4529242E-2,-3.225113E-2,2.214313E-2,1.682623E-1,9.442523E-3,-2.646183E-2,3.366976E-2,8.427594E-3,5.6296E-2],"split_indices":[0,5,3,2,2,0,3,3,5,0,0,0,0,0,2,0,3,2,2,9,0,2,5,2,0,8,5,0,0,0,0,0,0,0,0,0,0,0,0,0,0,0,0,0,0,0,0,0,0,0,0],"split_type":[0,0,0,0,0,0,0,0,0,0,0,0,0,0,0,0,0,0,0,0,0,0,0,0,0,0,0,0,0,0,0,0,0,0,0,0,0,0,0,0,0,0,0,0,0,0,0,0,0,0,0],"sum_hessian":[2.2508068E4,9.56398E3,1.2944088E4,4.256969E3,5.3070117E3,5.057457E3,7.8866313E3,2.3100903E3,1.9468787E3,1.5536245E3,3.7533875E3,1.5104868E2,4.906408E3,8.839759E2,7.0026553E3,1.6465819E3,6.6350854E2,6.879821E2,1.2588965E3,5.1707434E2,1.0365502E3,8.69213E2,2.8841743E3,3.249405E3,1.6570032E3,1.303641E3,5.6990146E3,6.7061505E2,9.7596686E2,2.4691542E1,6.38817E2,1.4977028E0,6.8648444E2,6.024515E0,1.2528721E3,9.055744E1,4.265169E2,1.638683E1,1.02016327E3,7.8957764E2,7.963541E1,4.1705814E1,2.8424685E3,2.687692E3,5.617132E2,1.570884E2,1.4999148E3,9.557477E2,3.4789328E2,1.423061E3,4.2759536E3],"tree_param":{"num_deleted":"0","num_feature":"11","num_nodes":"51","size_leaf_vector":"1"}},{"base_weights":[-2.0104917E-3,-3.2303926E-1,2.3330092E-1,-5.4518086E-1,-8.010977E-2,9.763888E-2,5.69675E-1,-8.017863E-1,-4.151738E-1,1.13234155E-1,-1.15215145E-1,-2.0932348E-1,2.787919E-1,2.7037492E-2,6.914655E-1,-8.957901E-1,-5.660205E-1,2.0176552E-1,-4.3482962E-1,-4.8988184E-1,-1.323276E-2,1.3094066E-1,-2.5177056E-1,-1.5912461E-1,3.979313E-1,-4.006174E-1,2.6099798E-1,9.099748E-1,5.646118E-1,-7.9351835E-2,-9.640079E-2,-6.295042E-2,-1.2142262E-2,-7.024101E-2,-2.9939786E-2,-5.5459734E-2,2.6856E-2,1.6170357E-1,-4.910355E-3,-4.453925E-2,9.749464E-3,-7.476179E-2,-3.636611E-3,1.2805031E-1,3.5594672E-2,-7.2683975E-2,-7.1163843E-3,4.7282472E-2,-3.5128806E-2,7.486632E-2,9.624832E-2,3.1640537E-2,7.486685E-2],"categories":[],"categories_nodes":[],"categories_segments":[],"categories_sizes":[],"default_left":[0,0,0,0,0,0,0,0,0,0,0,0,0,0,0,0,0,0,0,0,0,0,0,0,0,0,0,0,0,0,0,0,0,0,0,0,0,0,0,0,0,0,0,0,0,0,0,0,0,0,0,0,0],"id":22,"left_children":[1,3,5,7,9,11,13,15,17,-1,19,21,23,25,27,29,31,-1,33,35,37,-1,39,41,43,45,47,49,51,-1,-1,-1,-1,-1,-1,-1,-1,-1,-1,-1,-1,-1,-1,-1,-1,-1,-1,-1,-1,-1,-1,-1,-1],"loss_changes":[1.6619506E3,5.021181E2,5.7926056E2,1.618153E2,1.8936331E2,5.031774E2,2.4109192E2,3.5693115E1,1.5524298E2,0E0,1.6512277E2,2.168334E2,2.9694412E2,6.7119225E1,8.207544E1,7.3702393E0,1.3141846E1,0E0,1.1586505E2,4.5532425E1,1.9879483E2,0E0,2.210406E2,8.79439E1,1.6531024E2,2.5446E1,5.6395554E1,8.535339E0,8.600427E1,0E0,0E0,0E0,0E0,0E0,0E0,0E0,0E0,0E0,0E0,0E0,0E0,0E0,0E0,0E0,0E0,0E0,0E0,0E0,0E0,0E0,0E0,0E0,0E0],"parents":[2147483647,0,0,1,1,2,2,3,3,4,4,5,5,6,6,7,7,8,8,10,10,11,11,12,12,13,13,14,14,15,15,16,16,18,18,19,19,20,20,22,22,23,23,24,24,25,25,26,26,27,27,28,28],"right_children":[2,4,6,8,10,12,14,16,18,-1,20,22,24,26,28,30,32,-1,34,36,38,-1,40,42,44,46,48,50,52,-1,-1,-1,-1,-1,-1,-1,-1,-1,-1,-1,-1,-1,-1,-1,-1,-1,-1,-1,-1,-1,-1,-1,-1],"split_conditions":[-4.1836113E-1,-9.304262E-1,4.9639964E-1,-1.0211117E0,1.0981215E0,4.5852684E-3,-8.4317917E-1,3.500512E-1,-5.153807E-1,1.13234155E-1,-1.0211117E0,3.9053658E-1,-7.340384E-1,-1.3280222E0,-4.854931E-1,9.7827494E-1,1.3225443E0,2.0176552E-1,-5.343161E-1,-4.835586E-1,-5.153807E-1,1.3094066E-1,4.0205184E-1,-1.3803433E0,3.9053658E-1,1.2416452E0,9.514205E-1,7.871432E-1,4.5852684E-3,-7.9351835E-2,-9.640079E-2,-6.295042E-2,-1.2142262E-2,-7.024101E-2,-2.9939786E-2,-5.5459734E-2,2.6856E-2,1.6170357E-1,-4.910355E-3,-4.453925E-2,9.749464E-3,-7.476179E-2,-3.636611E-3,1.2805031E-1,3.5594672E-2,-7.2683975E-2,-7.1163843E-3,4.7282472E-2,-3.5128806E-2,7.486632E-2,9.624832E-2,3.1640537E-2,7.486685E-2],"split_indices":[0,1,2,0,1,5,5,5,0,0,0,0,2,5,7,9,5,0,5,4,0,0,0,2,0,2,7,2,5,0,0,0,0,0,0,0,0,0,0,0,0,0,0,0,0,0,0,0,0,0,0,0,0],"split_type":[0,0,0,0,0,0,0,0,0,0,0,0,0,0,0,0,0,0,0,0,0,0,0,0,0,0,0,0,0,0,0,0,0,0,0,0,0,0,0,0,0,0,0,0,0,0,0,0,0,0,0,0,0],"sum_hessian":[2.199843E4,9.304368E3,1.2694062E4,4.8594795E3,4.4448887E3,9.046738E3,3.647323E3,1.6323701E3,3.2271091E3,1.2419658E2,4.320692E3,3.3574355E3,5.689303E3,6.6878265E2,2.9785403E3,1.1650468E3,4.6732343E2,2.5049465E1,3.2020598E3,9.2362836E2,3.3970637E3,9.047426E1,3.2669612E3,1.2167184E3,4.472585E3,2.362431E2,4.3253958E2,1.0917665E3,1.8867738E3,4.7122293E2,6.938238E2,4.0856848E2,5.875495E1,1.0746412E3,2.1274185E3,8.512616E2,7.236675E1,7.2187355E1,3.3248762E3,2.101615E3,1.1653463E3,2.0912099E2,1.0075974E3,2.0176282E2,4.2708223E3,1.18097595E2,1.181455E2,3.2153052E2,1.1100906E2,2.7185492E2,8.199116E2,8.04542E2,1.0822318E3],"tree_param":{"num_deleted":"0","num_feature":"11","num_nodes":"53","size_leaf_vector":"1"}},{"base_weights":[4.335009E-4,-1.39636E-1,4.7537833E-1,-3.956358E-1,5.161564E-2,1.3064156E0,3.440461E-1,-8.3053404E-1,-3.1147504E-1,-4.6712163E-1,1.3295741E-1,1.8573586E0,1.1907686E0,1.7640086E-1,6.7139316E-1,-8.487954E-1,2.4808727E-1,-6.482091E-1,-2.0344234E-1,-5.201853E-1,3.0200613E-1,1.5624018E0,1.051361E-1,2.2875633E0,1.5479364E0,1.3066152E-1,1.16172016E-1,-4.2322356E-1,2.7926955E-1,1.2431524E0,4.7012088E-1,-2.245019E-2,-8.627896E-2,8.102946E-2,-3.1137327E-2,1.8834369E-1,-6.570293E-2,-3.3790283E-2,-5.695978E-3,2.2885303E-1,-5.3115673E-2,1.6855823E-1,-7.8154524E-4,1.9149314E-1,1.4003076E-1,-8.988315E-3,2.3522094E-2,2.4905233E-1,1.662897E-1,1.1039133E-1,1.7335296E-1,-3.1987067E-2,-8.670617E-2,3.4423593E-2,-2.665775E-2,1.7100196E-1,1.1938759E-1,2.8932724E-2,7.239072E-2],"categories":[],"categories_nodes":[],"categories_segments":[],"categories_sizes":[],"default_left":[0,0,0,0,0,0,0,0,0,0,0,0,0,0,0,0,0,0,0,0,0,0,0,0,0,0,0,0,0,0,0,0,0,0,0,0,0,0,0,0,0,0,0,0,0,0,0,0,0,0,0,0,0,0,0,0,0,0,0],"id":23,"left_children":[1,3,5,7,9,11,13,15,17,19,21,23,25,27,29,31,33,35,37,39,41,43,45,47,49,-1,-1,51,53,55,57,-1,-1,-1,-1,-1,-1,-1,-1,-1,-1,-1,-1,-1,-1,-1,-1,-1,-1,-1,-1,-1,-1,-1,-1,-1,-1,-1,-1],"loss_changes":[1.434496E3,8.1531647E2,5.355477E2,2.6037366E2,4.022786E2,4.046692E1,2.3268433E2,2.2940552E1,2.1696857E2,5.2901154E1,3.275714E2,1.1690521E1,3.5443115E-1,1.7324765E2,1.6471478E2,9.722168E0,6.5384827E0,3.3595703E1,8.900197E1,3.848111E1,3.6037758E1,6.30484E0,2.0512274E2,1.6621094E0,3.8258057E0,0E0,0E0,1.8594604E1,8.507135E1,6.548279E0,4.8610535E1,0E0,0E0,0E0,0E0,0E0,0E0,0E0,0E0,0E0,0E0,0E0,0E0,0E0,0E0,0E0,0E0,0E0,0E0,0E0,0E0,0E0,0E0,0E0,0E0,0E0,0E0,0E0,0E0],"parents":[2147483647,0,0,1,1,2,2,3,3,4,4,5,5,6,6,7,7,8,8,9,9,10,10,11,11,12,12,13,13,14,14,15,15,16,16,17,17,18,18,19,19,20,20,21,21,22,22,23,23,24,24,27,27,28,28,29,29,30,30],"right_children":[2,4,6,8,10,12,14,16,18,20,22,24,26,28,30,32,34,36,38,40,42,44,46,48,50,-1,-1,52,54,56,58,-1,-1,-1,-1,-1,-1,-1,-1,-1,-1,-1,-1,-1,-1,-1,-1,-1,-1,-1,-1,-1,-1,-1,-1,-1,-1,-1,-1],"split_conditions":[4.0205184E-1,4.5852684E-3,1.2964538E0,-1.0211117E0,-1.0211117E0,-9.304262E-1,1.4044809E0,-3.501432E-1,-1.0121901E0,-4.835586E-1,3.1794024E-1,-9.1865295E-1,-9.1865295E-1,-8.4317917E-1,2.2023711E0,-1.9224067E0,-3.5200235E-1,-5.153807E-1,-9.1865295E-1,3.1794024E-1,2.1349108E0,-4.1836113E-1,-9.1865295E-1,-4.835586E-1,1.1199328E0,1.3066152E-1,1.16172016E-1,9.514205E-1,1.6347102E0,-9.304262E-1,-3.501432E-1,-2.245019E-2,-8.627896E-2,8.102946E-2,-3.1137327E-2,1.8834369E-1,-6.570293E-2,-3.3790283E-2,-5.695978E-3,2.2885303E-1,-5.3115673E-2,1.6855823E-1,-7.8154524E-4,1.9149314E-1,1.4003076E-1,-8.988315E-3,2.3522094E-2,2.4905233E-1,1.662897E-1,1.1039133E-1,1.7335296E-1,-3.1987067E-2,-8.670617E-2,3.4423593E-2,-2.665775E-2,1.7100196E-1,1.1938759E-1,2.8932724E-2,7.239072E-2],"split_indices":[0,5,0,0,0,1,0,8,5,4,5,3,3,5,0,7,7,0,3,5,4,0,3,4,3,0,0,7,5,1,8,0,0,0,0,0,0,0,0,0,0,0,0,0,0,0,0,0,0,0,0,0,0,0,0,0,0,0,0],"split_type":[0,0,0,0,0,0,0,0,0,0,0,0,0,0,0,0,0,0,0,0,0,0,0,0,0,0,0,0,0,0,0,0,0,0,0,0,0,0,0,0,0,0,0,0,0,0,0,0,0,0,0,0,0,0,0,0,0,0,0],"sum_hessian":[2.156117E4,1.6651158E4,4.9100103E3,7.119836E3,9.531323E3,6.6883624E2,4.2411743E3,1.15298E3,5.966856E3,1.2913447E3,8.239979E3,1.1342381E2,5.554124E2,2.8057805E3,1.4353938E3,1.1339943E3,1.8985765E1,1.4481194E3,4.5187363E3,1.2083052E3,8.303967E1,1.562601E2,8.0837183E3,4.477622E1,6.864759E1,1.0253165E2,4.5288077E2,4.1040488E2,2.3953755E3,3.7238214E2,1.0630117E3,2.5235949E1,1.1087583E3,9.246011E0,9.739755E0,4.2897816E0,1.4438296E3,2.3553694E3,2.163367E3,3.893799E0,1.2044114E3,1.4380391E1,6.865928E1,4.581216E1,1.1044794E2,3.2346855E3,4.849033E3,3.1541212E1,1.3235008E1,2.2283463E1,4.636413E1,3.342837E2,7.612116E1,2.1409324E3,2.5444312E2,3.2333893E1,3.4004825E2,6.220281E2,4.409836E2],"tree_param":{"num_deleted":"0","num_feature":"11","num_nodes":"59","size_leaf_vector":"1"}},{"base_weights":[1.5687796E-3,-2.777934E-1,2.042825E-1,-5.1841795E-1,-8.3544634E-2,1.2436731E-1,1.6411442E-1,-6.521375E-1,-2.1421528E-1,-2.9345745E-1,2.1835457E-1,-2.2598159E-2,4.3850094E-1,-7.684519E-1,-4.555873E-1,2.7576697E0,-2.7071688E-1,-4.7483334E-1,-6.6103585E-2,1.7128965E-1,1.8129113E-1,-2.563827E-1,1.5066123E-1,1.2720085E0,3.1283298E-1,-9.011221E-2,-6.82154E-2,1.5728956E-1,-5.3540826E-2,2.8840598E-1,1.21954575E-1,-5.7656635E-2,-1.3831133E-2,4.453033E-1,-4.834259E-2,1.4962412E-1,-1.6085815E-2,-9.022085E-3,3.5935927E-2,-5.981731E-2,-1.53593095E-2,-9.66747E-3,3.8392108E-2,1.725844E-1,1.1733589E-1,-1.3506127E-2,4.498511E-2],"categories":[],"categories_nodes":[],"categories_segments":[],"categories_sizes":[],"default_left":[0,0,0,0,0,0,0,0,0,0,0,0,0,0,0,0,0,0,0,0,0,0,0,0,0,0,0,0,0,0,0,0,0,0,0,0,0,0,0,0,0,0,0,0,0,0,0],"id":24,"left_children":[1,3,5,7,9,-1,11,13,15,17,19,21,23,25,27,29,31,33,35,-1,37,39,41,43,45,-1,-1,-1,-1,-1,-1,-1,-1,-1,-1,-1,-1,-1,-1,-1,-1,-1,-1,-1,-1,-1,-1],"loss_changes":[1.1990745E3,4.1611755E2,5.120759E2,1.6162952E2,3.1234558E2,0E0,6.052931E2,6.279419E1,2.049019E2,1.1984744E2,1.116721E2,2.8485306E2,5.0072015E2,1.9234924E1,1.675015E2,9.0997314E-1,4.827442E1,7.0617096E1,1.9138957E2,0E0,9.546124E1,1.05072296E2,2.3307095E2,2.6022888E1,2.5527762E2,0E0,0E0,0E0,0E0,0E0,0E0,0E0,0E0,0E0,0E0,0E0,0E0,0E0,0E0,0E0,0E0,0E0,0E0,0E0,0E0,0E0,0E0],"parents":[2147483647,0,0,1,1,2,2,3,3,4,4,6,6,7,7,8,8,9,9,10,10,11,11,12,12,13,13,14,14,15,15,16,16,17,17,18,18,20,20,21,21,22,22,23,23,24,24],"right_children":[2,4,6,8,10,-1,12,14,16,18,20,22,24,26,28,30,32,34,36,-1,38,40,42,44,46,-1,-1,-1,-1,-1,-1,-1,-1,-1,-1,-1,-1,-1,-1,-1,-1,-1,-1,-1,-1,-1,-1],"split_conditions":[-4.1836113E-1,-3.6632362E-1,3.9053658E-1,6.790295E-1,3.500512E-1,1.2436731E-1,4.0205184E-1,-9.1865295E-1,9.763252E-1,-9.1865295E-1,6.4713275E-1,-2.1130842E-1,1.2964538E0,-1.0211117E0,1.1056108E0,-4.835586E-1,-8.277225E-1,-2.4737252E-1,1.1199328E0,1.7128965E-1,6.790295E-1,-8.277225E-1,4.5852684E-3,-9.304262E-1,-6.1039394E-1,-9.011221E-2,-6.82154E-2,1.5728956E-1,-5.3540826E-2,2.8840598E-1,1.21954575E-1,-5.7656635E-2,-1.3831133E-2,4.453033E-1,-4.834259E-2,1.4962412E-1,-1.6085815E-2,-9.022085E-3,3.5935927E-2,-5.981731E-2,-1.53593095E-2,-9.66747E-3,3.8392108E-2,1.725844E-1,1.1733589E-1,-1.3506127E-2,4.498511E-2],"split_indices":[0,2,0,5,5,0,0,3,5,3,5,2,0,0,3,4,2,2,3,0,5,2,5,1,2,0,0,0,0,0,0,0,0,0,0,0,0,0,0,0,0,0,0,0,0,0,0],"split_type":[0,0,0,0,0,0,0,0,0,0,0,0,0,0,0,0,0,0,0,0,0,0,0,0,0,0,0,0,0,0,0,0,0,0,0,0,0,0,0,0,0,0,0,0,0,0,0],"sum_hessian":[2.1171629E4,8.902549E3,1.2269079E4,3.9758367E3,4.9267124E3,4.5539166E2,1.18136875E4,2.7610203E3,1.2148165E3,2.9061042E3,2.0206084E3,7.0305244E3,4.783163E3,1.7327212E3,1.028299E3,2.1773277E1,1.1930432E3,1.6159003E3,1.2902039E3,4.7802673E1,1.9728057E3,2.9923582E3,4.0381663E3,6.254788E2,4.1576846E3,6.791648E2,1.0535564E3,3.8223484E1,9.900755E2,1.9311378E1,2.461898E0,3.594286E2,8.336146E2,1.9123585E0,1.6139879E3,7.292937E1,1.2172745E3,7.815774E2,1.1912284E3,6.907371E2,2.301621E3,1.960231E3,2.0779353E3,1.0873792E2,5.167409E2,9.739579E2,3.1837266E3],"tree_param":{"num_deleted":"0","num_feature":"11","num_nodes":"47","size_leaf_vector":"1"}},{"base_weights":[-5.413421E-4,-2.7139366E-1,1.889064E-1,-7.356093E-1,-1.8179497E-1,1.1343237E-1,1.2948313E-1,-8.4026587E-1,-4.9556422E-1,-3.0425158E-1,6.467753E-2,2.5955163E-2,5.841664E-1,-8.966815E-1,-6.587375E-1,1.315977E-1,-5.429758E-1,-3.970071E-1,1.55859E-3,2.326503E0,4.1192442E-2,1.5079449E-1,-3.01607E-1,-1.5113659E-1,6.5396523E-1,-1.6098255E-2,-9.0710826E-2,-5.2265014E-2,-8.0818094E-2,-1.9613772E-3,1.9890903E-1,1.2681513E-1,-5.552218E-2,-4.5891915E-2,-8.949781E-3,2.0214677E-1,-4.4810385E-3,3.3419332E-1,1.900733E-1,-4.0033426E-2,1.4640463E-2,1.0734784E-2,1.631577E-1,-7.910372E-2,-2.1655042E-2,-6.318104E-2,1.00382315E-2,5.6947507E-2,9.574559E-2],"categories":[],"categories_nodes":[],"categories_segments":[],"categories_sizes":[],"default_left":[0,0,0,0,0,0,0,0,0,0,0,0,0,0,0,0,0,0,0,0,0,0,0,0,0,0,0,0,0,0,0,0,0,0,0,0,0,0,0,0,0,0,0,0,0,0,0,0,0],"id":25,"left_children":[1,3,5,7,9,-1,11,13,15,17,19,21,23,25,27,29,31,33,35,37,39,41,43,45,47,-1,-1,-1,-1,-1,-1,-1,-1,-1,-1,-1,-1,-1,-1,-1,-1,-1,-1,-1,-1,-1,-1,-1,-1],"loss_changes":[1.0637732E3,3.5475867E2,6.851815E2,3.425482E1,2.1592455E2,0E0,5.4030896E2,9.237061E0,1.2603317E1,1.3556476E2,1.2607324E2,3.824226E2,1.0935663E2,5.4487305E0,4.281555E0,8.585009E0,9.398926E0,6.977234E1,1.0435621E2,4.193039E0,1.0930991E2,4.3544385E2,1.0725952E2,2.2474516E1,4.9314026E1,0E0,0E0,0E0,0E0,0E0,0E0,0E0,0E0,0E0,0E0,0E0,0E0,0E0,0E0,0E0,0E0,0E0,0E0,0E0,0E0,0E0,0E0,0E0,0E0],"parents":[2147483647,0,0,1,1,2,2,3,3,4,4,6,6,7,7,8,8,9,9,10,10,11,11,12,12,13,13,14,14,15,15,16,16,17,17,18,18,19,19,20,20,21,21,22,22,23,23,24,24],"right_children":[2,4,6,8,10,-1,12,14,16,18,20,22,24,26,28,30,32,34,36,38,40,42,44,46,48,-1,-1,-1,-1,-1,-1,-1,-1,-1,-1,-1,-1,-1,-1,-1,-1,-1,-1,-1,-1,-1,-1,-1,-1],"split_conditions":[-9.304262E-1,-1.0211117E0,1.0981215E0,3.500512E-1,6.926154E-2,1.1343237E-1,7.871432E-1,-2.0501561E-2,-9.6446425E-1,6.790295E-1,1.8788995E-1,9.514205E-1,-1.0121901E0,-1.0722262E0,9.060685E-1,-1.3942705E0,6.330031E-1,4.0205184E-1,9.763252E-1,-4.1836113E-1,-1.0121901E0,4.84102E-1,-5.343161E-1,1.2416452E0,-3.501432E-1,-1.6098255E-2,-9.0710826E-2,-5.2265014E-2,-8.0818094E-2,-1.9613772E-3,1.9890903E-1,1.2681513E-1,-5.552218E-2,-4.5891915E-2,-8.949781E-3,2.0214677E-1,-4.4810385E-3,3.3419332E-1,1.900733E-1,-4.0033426E-2,1.4640463E-2,1.0734784E-2,1.631577E-1,-7.910372E-2,-2.1655042E-2,-6.318104E-2,1.00382315E-2,5.6947507E-2,9.574559E-2],"split_indices":[1,0,1,5,2,0,2,2,7,5,2,7,5,9,9,7,5,0,5,0,5,7,5,2,8,0,0,0,0,0,0,0,0,0,0,0,0,0,0,0,0,0,0,0,0,0,0,0,0],"split_type":[0,0,0,0,0,0,0,0,0,0,0,0,0,0,0,0,0,0,0,0,0,0,0,0,0,0,0,0,0,0,0,0,0,0,0,0,0,0,0,0,0,0,0,0,0,0,0,0,0],"sum_hessian":[2.0729324E4,8.531482E3,1.2197842E4,1.3790968E3,7.152386E3,7.2027423E2,1.1477567E4,9.5864105E2,4.204557E2,4.7781772E3,2.3742085E3,9.349756E3,2.1278123E3,7.283453E2,2.3029579E2,2.9426416E1,3.910293E2,3.6659553E3,1.1122222E3,2.33909E1,2.3508176E3,6.770099E3,2.5796565E3,1.8437106E2,1.943441E3,1.0408013E1,7.1793726E2,1.2288794E2,1.0740785E2,2.812621E1,1.3002081E0,1.9374126E0,3.8909186E2,3.051161E3,6.1479443E2,2.4003304E1,1.0882189E3,4.886884E0,1.8504015E1,4.5184192E2,1.8989757E3,6.578166E3,1.919331E2,3.807064E2,2.1989502E3,6.2814766E1,1.2155629E2,1.5224698E3,4.2097128E2],"tree_param":{"num_deleted":"0","num_feature":"11","num_nodes":"49","size_leaf_vector":"1"}},{"base_weights":[-2.6766986E-3,-8.846234E-2,5.1475906E-1,-3.025431E-1,1.0830376E-1,1.2866484E0,2.1037844E-1,-4.6282232E-1,-1.2005493E-1,-2.3054817E-1,2.249584E-1,1.8057336E0,1.2226281E0,6.412289E-2,6.5649366E-1,-6.5761983E-1,-3.5257122E-1,1.6465571E0,-1.5411265E-1,-6.236651E-1,-9.643864E-2,4.7384852E-1,9.2819564E-2,2.0118718E0,1.4132845E-1,1.3306835E0,1.1355543E-1,-4.2094544E-1,1.5494771E-1,5.234492E-1,9.119052E-1,-3.9164804E-2,-7.257783E-2,-6.606377E-2,-2.4793891E-2,2.0578554E-1,1.5027077E-1,-3.1621996E-4,-3.7847713E-2,-7.339697E-2,-2.4905402E-2,1.0746151E-2,-4.2991307E-2,4.245751E-2,1.4005862E-1,1.7596208E-1,7.5294697E-3,2.1351437E-1,1.457381E-1,1.0776086E-1,1.3609995E-1,3.0030457E-2,-5.185647E-2,4.7785953E-2,-1.4287549E-3,1.6054882E-2,5.994267E-2,1.879078E-2,9.313843E-2],"categories":[],"categories_nodes":[],"categories_segments":[],"categories_sizes":[],"default_left":[0,0,0,0,0,0,0,0,0,0,0,0,0,0,0,0,0,0,0,0,0,0,0,0,0,0,0,0,0,0,0,0,0,0,0,0,0,0,0,0,0,0,0,0,0,0,0,0,0,0,0,0,0,0,0,0,0,0,0],"id":26,"left_children":[1,3,5,7,9,11,13,15,17,19,21,23,25,27,29,31,33,35,37,39,41,43,45,47,-1,49,-1,51,53,55,57,-1,-1,-1,-1,-1,-1,-1,-1,-1,-1,-1,-1,-1,-1,-1,-1,-1,-1,-1,-1,-1,-1,-1,-1,-1,-1,-1,-1],"loss_changes":[9.038053E2,7.357498E2,6.800503E2,2.446134E2,3.5982416E2,2.4999878E1,1.3553459E2,9.540692E1,2.3567802E2,1.2285249E2,2.2264648E2,4.2589417E0,5.3756104E0,6.905646E1,1.6952377E1,2.8871521E1,9.156839E1,1.2913666E0,1.3004376E2,2.4314484E1,1.1832723E2,1.0662164E2,1.2910065E2,6.6119385E-1,0E0,9.9450684E-1,0E0,1.7563507E1,7.212802E1,9.267227E0,2.2834778E0,0E0,0E0,0E0,0E0,0E0,0E0,0E0,0E0,0E0,0E0,0E0,0E0,0E0,0E0,0E0,0E0,0E0,0E0,0E0,0E0,0E0,0E0,0E0,0E0,0E0,0E0,0E0,0E0],"parents":[2147483647,0,0,1,1,2,2,3,3,4,4,5,5,6,6,7,7,8,8,9,9,10,10,11,11,12,12,13,13,14,14,15,15,16,16,17,17,18,18,19,19,20,20,21,21,22,22,23,23,25,25,27,27,28,28,29,29,30,30],"right_children":[2,4,6,8,10,12,14,16,18,20,22,24,26,28,30,32,34,36,38,40,42,44,46,48,-1,50,-1,52,54,56,58,-1,-1,-1,-1,-1,-1,-1,-1,-1,-1,-1,-1,-1,-1,-1,-1,-1,-1,-1,-1,-1,-1,-1,-1,-1,-1,-1,-1],"split_conditions":[-3.501432E-1,-2.1130842E-1,2.99104E0,3.500512E-1,-5.343161E-1,-9.304262E-1,4.128056E-1,-7.340384E-1,6.4713275E-1,-1.3280222E0,-6.521906E-3,-4.835586E-1,-4.835586E-1,-8.277225E-1,1.0663592E0,5.853308E-1,-8.4317917E-1,-9.304262E-1,9.7827494E-1,1.2416452E0,9.7827494E-1,-4.2123833E-1,-1.02285035E-1,-1.411885E-1,1.4132845E-1,1.0981215E0,1.1355543E-1,-1.0722262E0,-4.854931E-1,-3.146336E-1,-1.0121901E0,-3.9164804E-2,-7.257783E-2,-6.606377E-2,-2.4793891E-2,2.0578554E-1,1.5027077E-1,-3.1621996E-4,-3.7847713E-2,-7.339697E-2,-2.4905402E-2,1.0746151E-2,-4.2991307E-2,4.245751E-2,1.4005862E-1,1.7596208E-1,7.5294697E-3,2.1351437E-1,1.457381E-1,1.0776086E-1,1.3609995E-1,3.0030457E-2,-5.185647E-2,4.7785953E-2,-1.4287549E-3,1.6054882E-2,5.994267E-2,1.879078E-2,9.313843E-2],"split_indices":[8,2,8,5,5,1,2,2,5,5,7,4,4,2,6,10,5,1,9,2,9,7,2,6,0,1,0,9,7,5,5,0,0,0,0,0,0,0,0,0,0,0,0,0,0,0,0,0,0,0,0,0,0,0,0,0,0,0,0],"split_type":[0,0,0,0,0,0,0,0,0,0,0,0,0,0,0,0,0,0,0,0,0,0,0,0,0,0,0,0,0,0,0,0,0,0,0,0,0,0,0,0,0,0,0,0,0,0,0,0,0,0,0,0,0,0,0,0,0,0,0],"sum_hessian":[2.0359197E4,1.7464576E4,2.8946218E3,8.364019E3,9.100558E3,8.1771716E2,2.0769045E3,4.4521567E3,3.9118618E3,2.3303909E3,6.770167E3,8.679189E1,7.309253E2,1.564981E3,5.119236E2,1.6073104E3,2.8448462E3,7.309313E1,3.8387686E3,5.918483E2,1.7385425E3,2.3469614E3,4.4232056E3,5.419756E1,3.2594334E1,3.1979242E2,4.1113287E2,2.4624184E2,1.3187391E3,3.3859708E2,1.7332654E2,3.2924768E2,1.2780627E3,7.1991205E2,2.124934E3,1.5492081E1,5.760105E1,2.2954346E3,1.5433341E3,4.5647845E2,1.3536986E2,1.0792946E3,6.592479E2,2.2298608E3,1.1710065E2,4.4987736E1,4.378218E3,4.200791E1,1.2189646E1,3.8119564E1,2.8167285E2,2.9107527E1,2.1713431E2,4.5284946E2,8.658897E2,5.9156063E1,2.79441E2,4.8200817E0,1.6850645E2],"tree_param":{"num_deleted":"0","num_feature":"11","num_nodes":"59","size_leaf_vector":"1"}},{"base_weights":[7.8459014E-4,-1.1019531E-1,3.8529402E-1,-4.3906635E-1,-7.969653E-3,1.2506638E0,2.6672792E-1,-4.8570973E-1,4.1123506E-2,-1.8992826E-1,1.4511707E-1,1.6603584E0,1.1509587E0,1.1385377E-1,5.8093756E-1,-6.024914E-1,-3.2502297E-1,1.565283E-1,-2.73267E-1,-2.3438087E-1,5.0797486E-1,1.2536365E0,6.1474178E-2,1.9375077E0,1.422706E0,1.2321959E-1,1.1004615E-1,-1.6452663E-2,4.3449378E-1,1.2137785E0,3.838293E-1,-7.0224956E-2,-3.9343372E-2,1.4388673E-1,-4.1390862E-2,-8.416047E-2,-1.4962405E-2,-6.2867336E-2,-1.6680589E-2,1.547614E-1,2.5105739E-2,1.4136833E-1,1.1402754E-1,4.107163E-2,-1.7988048E-3,2.439523E-1,1.6980916E-1,1.0506E-1,1.5414825E-1,1.658835E-2,-1.9546155E-2,5.2697487E-2,-8.652042E-3,1.6129135E-1,1.1645277E-1,-1.4119755E-2,5.8909502E-2],"categories":[],"categories_nodes":[],"categories_segments":[],"categories_sizes":[],"default_left":[0,0,0,0,0,0,0,0,0,0,0,0,0,0,0,0,0,0,0,0,0,0,0,0,0,0,0,0,0,0,0,0,0,0,0,0,0,0,0,0,0,0,0,0,0,0,0,0,0,0,0,0,0,0,0,0,0],"id":27,"left_children":[1,3,5,7,9,11,13,15,17,19,21,23,25,27,29,31,33,-1,35,37,39,41,43,45,47,-1,-1,49,51,53,55,-1,-1,-1,-1,-1,-1,-1,-1,-1,-1,-1,-1,-1,-1,-1,-1,-1,-1,-1,-1,-1,-1,-1,-1,-1,-1],"loss_changes":[8.562079E2,5.2345984E2,4.6077155E2,8.271643E1,3.3092932E2,2.0199219E1,1.8985178E2,6.29563E1,1.5750865E2,1.6852214E2,5.9815326E2,4.072632E0,4.432373E-1,1.11186386E2,1.6092145E2,4.034503E1,2.2301012E2,0E0,1.9030426E1,1.3588394E2,8.651564E1,6.6000366E0,1.665278E2,1.2781677E0,1.0139313E0,0E0,0E0,6.1820038E1,3.709694E1,4.1528625E0,1.0655977E2,0E0,0E0,0E0,0E0,0E0,0E0,0E0,0E0,0E0,0E0,0E0,0E0,0E0,0E0,0E0,0E0,0E0,0E0,0E0,0E0,0E0,0E0,0E0,0E0,0E0,0E0],"parents":[2147483647,0,0,1,1,2,2,3,3,4,4,5,5,6,6,7,7,8,8,9,9,10,10,11,11,12,12,13,13,14,14,15,15,16,16,18,18,19,19,20,20,21,21,22,22,23,23,24,24,27,27,28,28,29,29,30,30],"right_children":[2,4,6,8,10,12,14,16,18,20,22,24,26,28,30,32,34,-1,36,38,40,42,44,46,48,-1,-1,50,52,54,56,-1,-1,-1,-1,-1,-1,-1,-1,-1,-1,-1,-1,-1,-1,-1,-1,-1,-1,-1,-1,-1,-1,-1,-1,-1,-1],"split_conditions":[4.0205184E-1,-6.1039394E-1,1.2964538E0,-3.501432E-1,-9.1865295E-1,-9.304262E-1,1.4044809E0,-9.1865295E-1,2.99104E0,-3.501432E-1,1.1199328E0,-9.1865295E-1,-1.4754051E-1,4.9639964E-1,2.2023711E0,-4.1836113E-1,1.1199328E0,1.565283E-1,-1.1178975E0,-1.0211117E0,2.99104E0,-4.1836113E-1,-4.854931E-1,-4.2641363E-1,1.1199328E0,1.2321959E-1,1.1004615E-1,-4.2978864E-2,9.514205E-1,-9.304262E-1,-6.1039394E-1,-7.0224956E-2,-3.9343372E-2,1.4388673E-1,-4.1390862E-2,-8.416047E-2,-1.4962405E-2,-6.2867336E-2,-1.6680589E-2,1.547614E-1,2.5105739E-2,1.4136833E-1,1.1402754E-1,4.107163E-2,-1.7988048E-3,2.439523E-1,1.6980916E-1,1.0506E-1,1.5414825E-1,1.658835E-2,-1.9546155E-2,5.2697487E-2,-8.652042E-3,1.6129135E-1,1.1645277E-1,-1.4119755E-2,5.8909502E-2],"split_indices":[0,2,0,8,3,1,0,3,8,8,3,3,2,2,0,0,3,0,2,0,8,0,7,2,3,0,0,9,7,1,2,0,0,0,0,0,0,0,0,0,0,0,0,0,0,0,0,0,0,0,0,0,0,0,0,0,0],"split_type":[0,0,0,0,0,0,0,0,0,0,0,0,0,0,0,0,0,0,0,0,0,0,0,0,0,0,0,0,0,0,0,0,0,0,0,0,0,0,0,0,0,0,0,0,0,0,0,0,0,0,0,0,0,0,0,0,0],"sum_hessian":[2.0062484E4,1.5569435E4,4.4930493E3,3.6911875E3,1.1878247E4,5.4027026E2,3.9527793E3,3.3643765E3,3.2681107E2,5.427221E3,6.4510264E3,1.0268373E2,4.3758652E2,2.659971E3,1.2928082E3,1.9467762E3,1.4176002E3,5.5204052E1,2.7160703E2,5.102861E3,3.2436017E2,4.5162686E2,5.9993994E3,4.4100822E1,5.8582912E1,1.5876776E2,2.7881876E2,1.8920148E3,7.679563E2,3.058097E2,